157 50
- -0.10503 0.24936 -0.42448 0.09592 -0.12576 -0.021357 -0.087701 -0.057109 0.40185 0.28443 -0.034268 0.19037 0.16212 0.033709 -0.24021 -0.035991 0.035934 0.041109 -0.08556 0.13606 -0.14511 -0.22308 -0.017684 0.26538 0.11184 -0.1659 0.17499 0.22149 -0.25097 -0.022617 -0.079111 0.01215 0.19382 -0.27251 -0.58795 0.0067267 -0.023779 -0.12851 -0.026162 -0.23293 0.21402 0.30424 0.18796 -0.35503 0.17407 -0.2088 0.19862 0.055345 -0.21137 -0.17094 
</s> -0.26879 0.067399 -0.18502 -0.12889 0.03797 -0.094439 -0.074025 0.041101 0.15657 0.17611 -0.24075 0.23126 0.041725 0.092166 -0.14741 -0.19848 -0.046666 0.087313 0.090141 0.11049 -0.14408 -0.13346 -0.036177 0.25028 0.15585 -0.094905 0.27519 0.16981 -0.11896 -0.094156 -0.18343 0.044754 0.18371 -0.10427 -0.52638 0.02597 0.10502 0.0070604 -0.08776 -0.11133 0.30482 0.11776 0.14778 -0.072603 0.0042265 -0.36084 0.18075 0.22388 -0.24928 -0.029159 
for -0.61178 0.06694 -0.22236 -0.082368 0.27428 0.19729 -0.20399 0.17834 0.45607 -0.0069758 -0.14812 -0.046019 0.38958 0.12153 -0.19266 -0.072094 0.09123 0.32172 -0.16764 0.22848 -0.3825 -0.31747 0.02438 0.5591 0.16444 -0.17377 0.36604 0.40747 -0.21039 -0.30448 0.11804 0.13116 0.30241 -0.049516 -0.88529 0.13127 -0.10694 -0.19651 -0.064078 -0.2045 0.47681 0.42754 0.35674 -0.18038 0.39297 -0.66408 0.28402 0.4299 -0.46284 0.087439 
black -0.13418 0.22146 -0.42206 0.18013 -0.013217 -0.013445 -0.090751 0.021497 0.3845 0.33474 -0.13931 0.04748 0.25554 -0.035387 -0.13484 -0.075212 0.10022 0.10426 -0.16834 0.15685 -0.1064 -0.22778 -0.058108 0.38633 0.107 -0.1618 0.21769 0.30304 -0.26332 -0.068707 -0.04682 0.085548 0.18561 -0.16937 -0.70396 -0.01095 -0.083948 -0.15281 -0.085517 -0.34562 0.28857 0.35136 0.20845 -0.4493 0.23442 -0.23651 0.23911 0.058906 -0.25233 -0.2169 
/ 0.58043 0.24852 -0.35127 0.087204 -0.54535 -0.74961 -0.21953 -0.20067 0.34161 0.95285 -0.66453 0.89244 -0.22145 0.014137 -0.40615 -0.34835 -0.56497 -0.16268 0.16586 0.31364 0.048097 -0.12419 -0.25625 0.26211 0.47699 -0.54576 0.26122 -0.081485 -0.44957 0.19592 -0.68673 -0.010917 0.20169 -0.5637 -0.88205 -0.30886 0.32023 0.0037891 -0.21614 -0.61132 0.40479 0.1128 -0.10554 -0.55926 -0.18921 -0.17322 0.21768 -0.13553 0.10299 -0.58942 
drive 0.28754 0.17296 -0.57063 -0.28739 -0.66735 -0.4696 -0.025945 -0.36776 0.29672 0.85875 -0.24158 0.4913 -0.15348 0.12358 -0.23068 -0.41789 -0.17893 -0.12051 0.49346 0.11133 0.10266 -0.43048 -0.0044279 0.14856 0.50435 -0.3176 0.41525 0.19047 -0.25919 0.30764 -0.58037 -0.32073 0.23368 -0.27547 -0.29455 0.17938 0.37712 0.11512 -0.13652 -0.33702 0.33974 0.026604 -0.04876 -0.35271 -0.30458 -0.25304 0.10981 -0.027891 -0.33283 -0.36033 
laptop 0.30397 0.13254 -0.23048 0.23043 -0.25626 -0.34455 -0.18749 -0.10806 0.28354 0.39319 -0.25654 0.52412 -0.023731 0.024246 -0.40293 -0.14823 -0.36079 0.0073449 0.055594 0.31994 -0.18067 0.035499 -0.042108 0.12849 0.14882 -0.37386 0.19059 0.051121 -0.29588 0.049912 -0.31523 0.14256 0.29222 -0.49725 -0.50293 -0.15726 0.076723 -0.14456 -0.13061 -0.47823 0.19454 0.23907 -0.063911 -0.51979 0.055564 -0.23812 0.17211 -0.08351 0.12845 -0.28462 
case -0.53484 0.10151 -0.17141 0.039618 0.026657 0.29412 -0.1531 0.08163 0.59276 0.023119 -0.071566 0.020052 0.43239 0.1357 -0.10477 -0.14607 0.035743 0.41736 -0.084709 0.13255 -0.3058 -0.30804 0.025821 0.46039 0.075596 -0.135 0.31042 0.55603 -0.20736 -0.14543 0.17072 -0.049105 0.17129 -0.031695 -0.65825 0.1526 -0.02316 -0.2665 -0.011096 -0.25186 0.4235 0.49552 0.18665 -0.24649 0.37515 -0.49953 0.24611 0.46943 -0.46399 0.0023042 
memory 0.29122 0.12622 -0.37906 -0.20913 -0.39468 -0.50461 -0.1008 -0.21581 0.19433 0.80193 -0.44339 0.51817 -0.2166 0.031766 -0.24965 -0.37179 -0.1936 -0.12243 0.25045 0.17847 0.13702 -0.23829 -0.11326 0.28812 0.4518 -0.30895 0.36266 0.031516 -0.29856 0.23237 -0.56424 -0.11755 0.20318 -0.25843 -0.6444 0.0095167 0.27331 0.1116 -0.18248 -0.45402 0.38076 0.038574 -0.034083 -0.32465 -0.25806 -0.23871 0.16155 -0.086871 -0.17768 -0.3587 
mobile -0.69982 0.1149 -0.31817 -0.016912 0.30619 0.23722 -0.16885 0.19824 0.52386 0.11689 -0.12603 -0.11855 0.38694 0.10833 -0.15117 -0.12321 0.23777 0.31437 -0.18276 0.15518 -0.29542 -0.35874 0.0035195 0.61497 0.12588 -0.086162 0.35879 0.49356 -0.214 -0.28023 0.12299 0.070822 0.28945 -0.0078296 -0.9451 0.14123 -0.099584 -0.17676 -0.068082 -0.25843 0.48631 0.47651 0.39578 -0.23905 0.37397 -0.61277 0.30535 0.39721 -0.52758 -0.012043 
hard 0.15709 0.084336 -0.34525 -0.30093 -0.36827 -0.39651 -0.068824 -0.22038 0.1828 0.6856 -0.30782 0.36256 -0.1323 0.053944 -0.16133 -0.35396 -0.10512 -0.1041 0.3178 0.099216 0.075452 -0.33432 -0.063684 0.23219 0.43972 -0.20774 0.36273 0.087888 -0.21293 0.1908 -0.42014 -0.17687 0.18709 -0.14562 -0.42761 0.12042 0.27525 0.12557 -0.13849 -0.30546 0.34392 -0.028994 -0.015485 -0.18162 -0.23932 -0.25036 0.10683 -0.0082295 -0.29311 -0.24437 
windows -0.36966 -0.053831 0.015444 -0.029123 -0.050344 0.094359 -0.1637 0.072769 0.43582 -0.034276 -0.13648 0.14638 0.15946 0.23309 -0.17441 -0.11686 -0.2006 0.36823 0.17366 0.1555 -0.35206 -0.15008 0.0777 0.21099 0.091035 -0.15052 0.21765 0.32339 -0.06667 -0.12581 0.0050654 -0.065172 0.14766 -0.084595 -0.30318 0.056797 0.1249 -0.12128 0.00055647 -0.14142 0.30911 0.26343 0.097171 -0.052617 0.15652 -0.44374 0.15091 0.40539 -0.21958 -0.0080262 
with -0.045988 -0.015031 0.00072524 0.33387 -0.32897 -0.15521 -0.21263 0.01541 0.58164 -0.018034 -0.14312 0.49249 0.077303 0.30521 -0.39404 -0.059479 -0.58913 0.39748 0.38939 0.24227 -0.50064 -0.0045876 0.094193 -0.054917 0.038931 -0.34665 0.055572 0.2908 -0.097376 -0.072241 -0.22443 -0.068397 0.17531 -0.47966 -0.098169 -0.13993 0.23788 -0.2203 -0.0027238 -0.21952 0.16127 0.3213 -0.015023 -0.27967 0.13463 -0.30925 0.15655 0.36074 0.14771 -0.2698 
phones -0.80918 0.068601 -0.22136 -0.10339 0.39661 0.29164 -0.20344 0.26998 0.57335 0.040326 -0.19767 -0.11966 0.42094 0.14 -0.17467 -0.13503 0.22489 0.42535 -0.20389 0.20544 -0.39957 -0.37097 0.03992 0.71387 0.15286 -0.0811 0.44053 0.53741 -0.25023 -0.36078 0.16667 0.080938 0.34074 0.052527 -1.0615 0.20834 -0.086536 -0.23376 -0.085621 -0.27957 0.56574 0.53509 0.44645 -0.20453 0.45003 -0.77226 0.34192 0.5131 -0.5885 0.048317 
processor 0.3705 0.16133 -0.18461 0.17196 -0.40223 -0.53037 -0.19753 -0.081587 0.31874 0.59243 -0.48774 0.70905 -0.12418 0.097542 -0.31415 -0.27267 -0.45248 0.0014999 0.15273 0.24913 -0.04381 -0.018542 -0.18148 0.16538 0.26098 -0.40016 0.15967 -0.0007004 -0.31728 0.11387 -0.52636 -0.018518 0.14731 -0.46322 -0.60964 -0.22372 0.26492 -0.094323 -0.13676 -0.45412 0.2744 0.16099 -0.074791 -0.42592 -0.090241 -0.12966 0.17345 -0.003443 0.14044 -0.44989 
intel® 0.3892 0.10698 -0.11802 0.41296 -0.51707 -0.50036 -0.26153 -0.0762 0.5121 0.43909 -0.38946 0.80023 -0.045568 0.20781 -0.41856 -0.19578 -0.70557 0.1853 0.26571 0.33447 -0.24508 0.086998 -0.09363 -0.017269 0.14097 -0.53244 0.05261 0.10472 -0.2767 0.10428 -0.48586 0.0075458 0.17205 -0.64734 -0.40145 -0.30163 0.28776 -0.20515 -0.13054 -0.56606 0.2016 0.29758 -0.1097 -0.55251 -0.0050519 -0.13202 0.21764 0.063814 0.2972 -0.48993 
& -0.3891 -0.32802 0.36903 -0.15099 0.013048 -0.22001 -0.38882 0.19313 0.53864 -0.16106 -0.22447 0.5177 -0.024943 0.44897 -0.55229 -0.067243 -0.63474 0.49377 0.33656 0.29413 -0.72375 0.009218 0.12778 -0.0053306 0.18765 -0.40448 0.14099 0.16626 0.045016 -0.21257 -0.090236 0.029028 0.28111 -0.39611 -0.17294 -0.14264 0.27049 -0.025009 -0.11142 -0.27503 0.32586 0.07947 0.1904 0.17076 0.12094 -0.59749 0.13032 0.51829 0.056882 0.091624 
wireless -0.61627 -0.21222 0.16167 -0.17929 0.098981 0.038867 -0.18909 0.16501 0.4964 -0.16249 -0.17301 0.18809 0.10188 0.37237 -0.29423 -0.14057 -0.31256 0.47044 0.36142 0.12974 -0.54273 -0.16722 0.14807 0.15581 0.14566 -0.16565 0.24979 0.32308 0.056614 -0.24402 -0.019869 -0.088137 0.23915 -0.11272 -0.2417 0.078249 0.2277 -0.05374 -0.050922 -0.036935 0.36479 0.16506 0.20476 0.19045 0.11422 -0.61921 0.14022 0.62158 -0.24173 0.069986 
apple® -0.34711 0.24398 -0.40131 0.082773 -0.059723 0.21103 -0.08888 0.017907 0.41206 0.14749 -0.12678 0.011513 0.48428 -0.0053415 0.012115 -0.14868 0.1504 0.24254 -0.21905 0.15009 -0.16248 -0.30883 -0.047477 0.528 0.090638 -0.14882 0.35191 0.47363 -0.29316 -0.10181 0.094015 0.080264 0.14374 -0.054726 -0.79319 0.16525 -0.098432 -0.28414 -0.034368 -0.24948 0.43082 0.49068 0.17866 -0.40736 0.38035 -0.41547 0.27992 0.30003 -0.48446 -0.010046 
desktop 0.091085 -0.30853 0.27949 -0.34416 -0.23399 -0.6529 -0.34834 0.015005 0.27631 0.33447 -0.45697 0.77994 -0.36157 0.39802 -0.59275 -0.25398 -0.65941 0.1603 0.48112 0.3654 -0.42205 0.012599 0.029874 -0.047504 0.47956 -0.51022 0.23447 -0.13824 -0.038667 0.042555 -0.50896 -0.034489 0.31468 -0.47901 -0.16017 -0.16269 0.43425 0.19062 -0.21438 -0.47564 0.31795 -0.18444 0.084566 0.084305 -0.25218 -0.46166 0.063034 0.15847 0.1847 -0.10675 
hp 0.076352 -0.1202 0.080098 -0.066226 -0.15883 -0.42782 -0.2852 -0.029955 0.35247 0.23551 -0.25828 0.57029 -0.16948 0.28506 -0.52598 -0.13904 -0.50751 0.14678 0.3039 0.28867 -0.40082 -0.0016816 0.027435 -0.035495 0.27332 -0.42893 0.15616 0.0064882 -0.071389 0.0062598 -0.3065 0.037996 0.28187 -0.50079 -0.25179 -0.22725 0.25026 0.068666 -0.17196 -0.44257 0.23244 0.0020419 0.055707 -0.11346 -0.071832 -0.31661 0.090215 0.12352 0.12293 -0.15785 
usb -0.094154 0.086081 -0.56327 -0.38555 -0.42816 -0.19011 0.050028 -0.27031 0.28701 0.55165 -0.045792 0.099121 0.046683 0.16765 -0.091967 -0.33237 0.099121 -0.00010551 0.5602 0.02339 -0.011302 -0.54142 0.11592 0.1589 0.42925 -0.11163 0.47189 0.35423 -0.084132 0.17791 -0.36134 -0.30236 0.25307 -0.086931 -0.026915 0.3516 0.283 0.12351 -0.083429 -0.090916 0.32719 0.026156 0.082608 -0.16486 -0.2124 -0.38881 0.10425 0.13881 -0.57678 -0.10683 
and -0.38974 0.070147 -0.14342 0.012009 -0.010088 0.13318 -0.16939 0.075851 0.39374 -0.041723 -0.12077 0.10824 0.29677 0.13011 -0.15313 -0.07204 -0.088914 0.31374 -0.077403 0.21853 -0.38081 -0.15986 0.029941 0.33524 0.10017 -0.19851 0.26929 0.35509 -0.1564 -0.14281 0.083934 0.10636 0.17622 -0.1227 -0.54981 0.069068 -0.015714 -0.19488 -0.037753 -0.2299 0.37756 0.35392 0.17072 -0.16446 0.3045 -0.48282 0.22678 0.35308 -0.30644 0.072997 
package -0.29106 -0.30676 0.32295 -0.16394 -0.068842 -0.31732 -0.39609 0.14214 0.57976 -0.04904 -0.21144 0.55473 -0.091845 0.46714 -0.59908 -0.095152 -0.6501 0.42239 0.32912 0.29569 -0.68692 -0.0046451 0.099056 -0.029496 0.23978 -0.43873 0.14253 0.14253 0.018442 -0.15072 -0.15053 -0.026897 0.28613 -0.42852 -0.15553 -0.16343 0.30212 0.0020945 -0.13809 -0.36781 0.30352 0.049455 0.18185 0.13705 0.059922 -0.54787 0.11077 0.44256 0.087537 0.03223 
battery -0.5336 0.18509 -0.42379 0.15202 0.31022 0.27044 -0.15302 0.11596 0.48156 -0.026336 -0.05408 -0.069568 0.4374 0.039866 -0.27819 -0.0010886 0.055295 0.2845 -0.20403 0.2877 -0.46829 -0.21199 0.12142 0.51929 0.026404 -0.15975 0.3748 0.46008 -0.27095 -0.32149 0.15036 0.27533 0.42927 -0.22509 -0.91794 0.097946 -0.2047 -0.32335 -0.073568 -0.2418 0.41112 0.60298 0.29107 -0.42238 0.47451 -0.71259 0.34841 0.30719 -0.41011 0.029461 
samsung -0.30101 0.077722 -0.11461 0.028501 0.14428 -0.023591 -0.17273 0.15098 0.3208 0.15277 -0.22405 0.13541 0.14909 0.064658 -0.1572 -0.13569 -0.015681 0.16962 -0.14088 0.12138 -0.15027 -0.094511 -0.069056 0.3651 0.075281 -0.11894 0.21281 0.20745 -0.18892 -0.15307 -0.044341 0.083765 0.17271 -0.083691 -0.70413 -0.0043663 0.0055324 -0.11361 -0.094153 -0.26385 0.31312 0.29196 0.1704 -0.18533 0.18329 -0.3353 0.21625 0.20382 -0.18841 -0.08885 
monitor -0.35873 -0.37562 0.40525 -0.19134 0.15298 -0.3893 -0.48808 0.27851 0.52381 -0.08312 -0.31927 0.54814 -0.067356 0.4956 -0.73341 -0.0058212 -0.63085 0.42074 0.20675 0.45603 -0.83605 0.041852 0.10733 0.066404 0.33846 -0.53236 0.13273 0.014971 0.024863 -0.27015 -0.15756 0.18977 0.42454 -0.5238 -0.36874 -0.2548 0.20822 0.042806 -0.194 -0.50772 0.38116 0.0041103 0.36361 0.13052 0.11233 -0.70313 0.15995 0.38147 0.1835 0.10184 
2.0 -0.16556 0.024691 -0.36944 -0.52621 -0.35848 -0.21628 0.013791 -0.18712 0.17797 0.54768 -0.23022 0.1903 -0.057312 0.16731 -0.02846 -0.45882 0.0057783 0.0086817 0.48519 -0.0038765 0.041428 -0.4885 0.02456 0.27997 0.43231 -0.10396 0.50563 0.27931 -0.14522 0.11631 -0.37772 -0.32369 0.18371 0.080456 -0.33256 0.37717 0.3582 0.12097 -0.092036 -0.054371 0.42505 -0.017023 0.037744 0.0068184 -0.25933 -0.43945 0.086006 0.28439 -0.57567 -0.087849 
phone -0.61735 0.074174 -0.21498 -0.052775 0.27011 0.192 -0.17589 0.19094 0.51833 0.081483 -0.154 -0.056364 0.33861 0.12407 -0.18147 -0.10372 0.17108 0.33762 -0.15887 0.18805 -0.33318 -0.32116 0.020075 0.56164 0.14574 -0.10203 0.34296 0.45689 -0.21935 -0.26222 0.11666 0.052264 0.28199 -0.011091 -0.85169 0.14167 -0.063652 -0.18642 -0.076138 -0.28773 0.45203 0.43629 0.37784 -0.21364 0.36751 -0.59083 0.28139 0.3877 -0.46046 -0.0042811 
card -0.38772 -0.098105 0.1288 -0.59426 -0.065372 -0.032049 -0.13015 0.026326 0.20628 0.35082 -0.47138 0.24273 -0.044499 0.16062 0.080849 -0.55603 -0.03848 0.20886 0.22793 -0.01152 0.099117 -0.31679 -0.10814 0.50605 0.36925 0.0049357 0.48381 0.22304 -0.17122 0.019004 -0.1936 -0.2878 0.069285 0.33033 -0.65575 0.35153 0.35644 0.036269 -0.071328 -0.085181 0.56176 0.076598 -0.036855 0.25275 -0.16777 -0.53246 0.1293 0.51544 -0.52793 -0.0011058 
series -0.63616 0.11029 -0.27661 -0.0046464 0.19285 0.31379 -0.15903 0.13462 0.53328 -0.015526 -0.087567 -0.074539 0.43653 0.12693 -0.15298 -0.11245 0.11772 0.40156 -0.10882 0.19314 -0.40184 -0.30528 0.089725 0.549 0.082249 -0.11628 0.39009 0.52968 -0.23385 -0.27232 0.15247 0.076339 0.293 -0.04017 -0.81235 0.20287 -0.083216 -0.28037 -0.031033 -0.20983 0.46628 0.54483 0.2817 -0.27029 0.43315 -0.68779 0.30222 0.46191 -0.52081 0.041621 
4gb 0.37678 0.11778 -0.42329 -0.37176 -0.59045 -0.6254 -0.13128 -0.32062 0.23255 0.87166 -0.37904 0.66562 -0.32198 0.097186 -0.33608 -0.4424 -0.20207 -0.18906 0.38933 0.21534 0.13329 -0.33937 -0.11403 0.21182 0.57054 -0.34763 0.44375 0.019066 -0.31965 0.31074 -0.64608 -0.24076 0.24809 -0.32155 -0.46107 0.13345 0.40521 0.15505 -0.17116 -0.42625 0.3522 -0.024526 -0.048798 -0.31976 -0.34313 -0.26148 0.13521 -0.07686 -0.1975 -0.38971 
printer -0.25263 -0.21047 0.19545 0.024166 -0.037095 -0.2055 -0.28598 0.099193 0.55888 -0.067941 -0.18189 0.46998 0.031017 0.41448 -0.51646 -0.050838 -0.61191 0.42009 0.38117 0.32765 -0.6703 -0.020164 0.13469 -0.055919 0.17532 -0.42953 0.12844 0.19722 0.019245 -0.16811 -0.15776 0.03588 0.30842 -0.50698 -0.14388 -0.19681 0.23176 -0.07783 -0.10749 -0.31419 0.27945 0.14557 0.16892 -0.043344 0.089452 -0.49882 0.12898 0.40196 0.083073 -0.040229 
dell -0.016404 -0.10213 0.001395 0.036863 -0.038724 -0.32955 -0.23385 0.036424 0.33438 0.15027 -0.23578 0.4156 -0.059989 0.2217 -0.48692 -0.059554 -0.43396 0.14284 0.17342 0.36314 -0.45415 0.022443 0.064776 0.03706 0.23723 -0.3972 0.14761 0.0010502 -0.099868 -0.081566 -0.2488 0.14577 0.33358 -0.44357 -0.32778 -0.15026 0.14821 -0.033631 -0.1434 -0.40037 0.23459 0.10307 0.13502 -0.17033 0.024074 -0.42079 0.15346 0.090754 0.13995 -0.12735 
lithium-ion -0.44281 0.12768 -0.26837 0.18169 0.30027 0.24937 -0.21692 0.11365 0.48044 -0.1142 -0.064117 0.0091445 0.37477 0.058388 -0.34007 -0.018349 -0.057269 0.28901 -0.22988 0.31785 -0.50516 -0.11722 0.11771 0.47608 0.0040623 -0.22009 0.33905 0.38899 -0.29953 -0.33461 0.15311 0.29649 0.41107 -0.2544 -0.90479 0.077526 -0.1855 -0.36381 -0.065475 -0.29897 0.36997 0.61995 0.1998 -0.42992 0.49518 -0.72503 0.33242 0.31199 -0.28499 0.027649 
mouse -0.50553 -0.10768 0.088782 0.069866 0.05434 0.13596 -0.25927 0.12701 0.68218 -0.13731 -0.070055 0.20652 0.24734 0.31533 -0.34971 -0.046263 -0.32656 0.5268 0.1901 0.20181 -0.57629 -0.16041 0.11314 0.15911 0.07495 -0.26705 0.17929 0.43451 -0.033278 -0.19345 0.080952 -0.024099 0.24237 -0.25743 -0.30454 -0.049715 0.10491 -0.15178 -0.018182 -0.24772 0.33486 0.33202 0.19406 -0.073293 0.29738 -0.52841 0.16807 0.51419 -0.18101 0.020583 
cell -0.39648 0.080466 -0.19557 0.17566 0.24029 0.11984 -0.16431 0.1413 0.43774 0.037077 -0.12136 0.0021608 0.27399 0.070529 -0.22025 -0.027485 -0.003542 0.23673 -0.14309 0.22939 -0.32338 -0.13646 0.034698 0.38758 0.051537 -0.16034 0.21373 0.30428 -0.19494 -0.23852 0.0594 0.14979 0.29194 -0.17602 -0.72157 -0.00052181 -0.088415 -0.22287 -0.070452 -0.25766 0.31402 0.43016 0.23789 -0.29645 0.31181 -0.47286 0.25849 0.2545 -0.20714 -0.083169 
laptops -0.21756 0.11225 -0.18691 0.22724 0.12817 0.090813 -0.1864 0.077986 0.38149 0.0074667 -0.12524 0.15575 0.28703 0.027688 -0.3002 -0.044055 -0.14115 0.2274 -0.18191 0.30059 -0.37351 -0.026592 0.04295 0.3504 0.0040774 -0.23134 0.25458 0.2788 -0.26656 -0.20703 0.05985 0.25231 0.33221 -0.28195 -0.70995 -0.015977 -0.12293 -0.29524 -0.072477 -0.33964 0.29639 0.46737 0.10727 -0.41995 0.37032 -0.50541 0.25366 0.19002 -0.12496 -0.031748 
display 0.52298 0.21854 -0.35554 -0.013422 -0.55013 -0.6794 -0.17013 -0.25324 0.28897 0.87763 -0.50373 0.8066 -0.22143 0.024835 -0.36839 -0.39444 -0.4013 -0.16928 0.1512 0.2739 0.13169 -0.11279 -0.22476 0.22153 0.43366 -0.48843 0.27741 -0.046552 -0.39998 0.26322 -0.64423 -0.044978 0.21238 -0.4955 -0.72974 -0.13416 0.3119 0.015916 -0.20758 -0.63026 0.33444 0.12623 -0.098623 -0.53792 -0.20669 -0.13594 0.19909 -0.16481 0.027025 -0.53621 
asus 0.07884 -0.027196 0.058837 -0.010546 -0.28132 -0.30762 -0.19794 -0.00057369 0.30862 0.26268 -0.34481 0.50675 -0.073547 0.19866 -0.24192 -0.2224 -0.42036 0.16295 0.20795 0.18567 -0.16007 -0.00070345 -0.078303 0.090224 0.21052 -0.3071 0.15096 0.062534 -0.14622 0.044678 -0.29782 -0.056426 0.10345 -0.26711 -0.31323 -0.085044 0.26785 -0.04415 -0.098472 -0.33303 0.25796 0.10989 -0.027698 -0.14614 -0.054825 -0.24007 0.12536 0.17946 0.043334 -0.20857 
sony 0.04438 0.14265 -0.095258 0.38399 -0.17969 -0.10962 -0.21891 0.029358 0.49295 0.11461 -0.17715 0.44646 0.13889 0.15444 -0.37112 -0.051639 -0.38235 0.24503 0.019211 0.27548 -0.32854 0.079451 -0.00042215 0.12204 -0.037246 -0.30705 0.056002 0.20039 -0.24415 -0.068046 -0.17141 0.093138 0.20364 -0.46694 -0.479 -0.18376 0.062422 -0.28682 -0.041036 -0.37467 0.16228 0.4155 0.012331 -0.4495 0.22667 -0.25512 0.19826 0.15667 0.13613 -0.26942 
lenmar -0.5589 0.066059 -0.19508 0.12111 0.33467 0.21059 -0.24278 0.19165 0.51315 -0.11655 -0.093635 0.0085398 0.38369 0.12961 -0.34785 -0.006945 -0.060209 0.34968 -0.16905 0.31549 -0.55272 -0.15103 0.11011 0.45633 0.04146 -0.21163 0.31711 0.39678 -0.21866 -0.35348 0.14764 0.25658 0.4138 -0.24597 -0.84198 0.044516 -0.1437 -0.29463 -0.082613 -0.27645 0.39518 0.54145 0.2907 -0.30118 0.46901 -0.72297 0.31664 0.3778 -0.29637 0.054444 
external -0.093754 0.1348 -0.78232 -0.43783 -0.49537 -0.21915 0.11719 -0.37041 0.30566 0.69557 -0.050329 0.11416 0.013623 0.15207 -0.11721 -0.39313 0.036813 -0.056517 0.70578 0.035865 -0.038769 -0.67742 0.17286 0.1772 0.47681 -0.14981 0.55417 0.4274 -0.12044 0.16961 -0.43045 -0.3629 0.32809 -0.11853 -0.13621 0.40344 0.3151 0.1326 -0.087534 -0.04579 0.38727 0.0087165 0.10637 -0.20918 -0.27667 -0.44147 0.10968 0.18303 -0.69231 -0.18287 
1tb 0.27635 0.11724 -0.50863 -0.40218 -0.57812 -0.54819 -0.041855 -0.32824 0.20794 0.84145 -0.30907 0.49944 -0.24204 0.10063 -0.25991 -0.42388 -0.14483 -0.18999 0.50909 0.11632 0.088608 -0.42432 -0.043187 0.18731 0.54952 -0.26772 0.46427 0.098488 -0.25397 0.26763 -0.58348 -0.27421 0.25399 -0.23544 -0.33893 0.19047 0.38617 0.18157 -0.15647 -0.2942 0.35224 -0.083276 -0.010358 -0.22504 -0.35249 -0.2782 0.10421 -0.023537 -0.31794 -0.32337 
select -0.62017 0.10483 -0.24391 0.22692 0.32302 0.27116 -0.24492 0.18536 0.61351 -0.19384 -0.049238 0.028933 0.46212 0.14047 -0.37624 0.02466 -0.099258 0.42551 -0.17159 0.33174 -0.63172 -0.13778 0.1267 0.44652 -0.01544 -0.24347 0.31243 0.48141 -0.22525 -0.38565 0.19082 0.2783 0.44225 -0.30287 -0.85923 0.031663 -0.15679 -0.35655 -0.062466 -0.27099 0.39441 0.63974 0.29169 -0.37209 0.5507 -0.74817 0.34696 0.43584 -0.3136 0.036322 
15.6" 0.41967 0.17245 -0.36497 -0.040041 -0.50883 -0.63698 -0.16989 -0.213 0.30079 0.82749 -0.46131 0.73323 -0.20087 0.057754 -0.38599 -0.34062 -0.38593 -0.1361 0.21957 0.26274 0.014512 -0.17868 -0.1524 0.19954 0.43722 -0.45276 0.29114 -0.017633 -0.34479 0.20426 -0.60768 -0.057151 0.22943 -0.47585 -0.65559 -0.13475 0.28788 0.048433 -0.19553 -0.54556 0.33893 0.068206 -0.040649 -0.46742 -0.19199 -0.20643 0.18268 -0.12713 -0.023539 -0.45401 
led -0.2479 -0.33746 0.28607 -0.25165 0.078674 -0.44468 -0.41015 0.1918 0.36491 -0.019478 -0.25435 0.48205 -0.12191 0.38159 -0.65513 -0.039035 -0.53272 0.27672 0.17726 0.39542 -0.72354 0.037232 0.11474 0.053293 0.33827 -0.47313 0.15706 -0.025917 0.020966 -0.19048 -0.17443 0.17884 0.40031 -0.45794 -0.29198 -0.14827 0.19434 0.056365 -0.2238 -0.48024 0.33495 -0.047144 0.26508 0.11285 0.065568 -0.63083 0.13283 0.24831 0.12538 0.1069 
core™ 0.5235 0.13626 -0.22053 -0.010835 -0.53808 -0.73682 -0.25986 -0.20626 0.3325 0.85161 -0.56579 0.89271 -0.29135 0.068967 -0.45432 -0.36035 -0.53641 -0.12589 0.22037 0.31631 0.023224 -0.088522 -0.20841 0.18986 0.4636 -0.52354 0.27533 -0.08362 -0.39126 0.23392 -0.65416 -0.049158 0.24202 -0.53182 -0.69597 -0.19845 0.35194 0.012721 -0.21613 -0.62342 0.34653 0.084414 -0.12426 -0.47217 -0.20831 -0.18845 0.1842 -0.1164 0.11767 -0.51761 
toshiba 0.14202 0.14863 -0.34496 0.10635 -0.20531 -0.2424 -0.13836 -0.10582 0.29234 0.39648 -0.15901 0.33123 0.0072642 0.040793 -0.2874 -0.13191 -0.20397 0.0075865 0.11709 0.18506 -0.12307 -0.14468 -0.012746 0.1376 0.16502 -0.27938 0.19835 0.13873 -0.23682 0.032365 -0.26714 0.028982 0.25011 -0.33967 -0.43702 -0.071868 0.069449 -0.065697 -0.10889 -0.29644 0.17859 0.19957 0.030553 -0.4087 0.028916 -0.2302 0.15221 -0.017978 -0.067338 -0.24584 
notebook -0.022053 0.031262 -0.070094 0.16888 -0.18426 -0.16981 -0.17722 0.011032 0.40709 0.14619 -0.20912 0.37269 0.084072 0.17658 -0.26844 -0.11638 -0.33419 0.22748 0.14857 0.21519 -0.27769 -0.046379 -0.021658 0.10466 0.10818 -0.29331 0.13304 0.20633 -0.14184 -0.028583 -0.18647 0.011399 0.16246 -0.33591 -0.33967 -0.1024 0.14402 -0.13793 -0.06858 -0.3056 0.22998 0.23848 0.053929 -0.27287 0.10576 -0.25918 0.15714 0.21304 0.0063802 -0.18641 
8gb 0.29526 0.089726 -0.38819 -0.38287 -0.53196 -0.53138 -0.10692 -0.28968 0.20908 0.80148 -0.34862 0.5472 -0.28011 0.089362 -0.26538 -0.42452 -0.1363 -0.16683 0.37993 0.16335 0.14167 -0.35418 -0.09464 0.21934 0.53024 -0.27943 0.44254 0.053276 -0.28213 0.28063 -0.56818 -0.26872 0.21672 -0.21624 -0.40146 0.17073 0.37403 0.14787 -0.14044 -0.34118 0.32996 -0.025288 -0.043993 -0.24632 -0.3207 -0.25608 0.11904 -0.035621 -0.24997 -0.33086 
blue -0.10901 0.20624 -0.44554 0.11747 -0.15843 -0.03355 -0.059797 -0.058808 0.37736 0.33747 -0.10488 0.10434 0.19794 0.033233 -0.10979 -0.14177 0.035358 0.11155 0.053785 0.1138 -0.094991 -0.27031 -0.010225 0.29535 0.1369 -0.15121 0.2468 0.32944 -0.21942 -0.0020085 -0.14428 -0.044719 0.17807 -0.16733 -0.51116 0.072198 0.030199 -0.12095 -0.049378 -0.24142 0.27678 0.30733 0.13751 -0.39202 0.12529 -0.25478 0.20349 0.11536 -0.28014 -0.21731 
red -0.16823 -0.04979 -0.081684 -0.13344 -0.081032 -0.15077 -0.13213 0.015014 0.28327 0.16998 -0.15408 0.17115 0.034358 0.13741 -0.20302 -0.14898 -0.1206 0.15084 0.12569 0.12953 -0.22872 -0.16694 0.020572 0.19678 0.20481 -0.18092 0.20438 0.17567 -0.077925 -0.046951 -0.11814 -0.019875 0.18412 -0.12144 -0.33631 0.054318 0.12545 -0.00486 -0.10418 -0.26084 0.29241 0.090646 0.12827 -0.062698 0.034588 -0.32433 0.12117 0.19915 -0.17769 -0.054438 
white -0.051737 0.1236 -0.28599 0.079591 -0.26294 -0.074854 -0.080933 -0.091974 0.39431 0.27664 -0.14368 0.25187 0.10973 0.12306 -0.15407 -0.18545 -0.13845 0.15877 0.20233 0.1316 -0.14195 -0.20912 0.017803 0.18426 0.14141 -0.17132 0.22525 0.29458 -0.18802 0.022388 -0.19978 -0.1024 0.15833 -0.20475 -0.35472 0.06699 0.14 -0.12346 -0.034142 -0.21531 0.25116 0.27308 0.030545 -0.29658 0.049914 -0.26813 0.16877 0.18096 -0.18839 -0.22112 
lcd -0.35381 -0.41462 0.42361 -0.37062 0.09883 -0.41586 -0.44114 0.2497 0.37719 -0.06634 -0.31501 0.48517 -0.14944 0.45157 -0.61074 -0.11203 -0.55901 0.33959 0.2085 0.35969 -0.72742 0.041119 0.10977 0.10833 0.36765 -0.44659 0.2013 -0.0093635 0.03384 -0.21193 -0.17917 0.11921 0.35236 -0.34454 -0.32035 -0.079639 0.2593 0.06345 -0.2135 -0.44937 0.40197 -0.056446 0.25822 0.24944 0.029356 -0.70147 0.12167 0.38618 0.070218 0.17605 
digital -0.083225 0.075518 -0.54482 -0.26344 -0.39207 -0.19874 0.027564 -0.24094 0.28254 0.48618 -0.0505 0.14439 0.026715 0.17103 -0.16913 -0.27037 -0.0056891 0.029871 0.51839 0.10957 -0.12574 -0.4713 0.15097 0.13016 0.36278 -0.1768 0.40851 0.34868 -0.093744 0.11176 -0.32699 -0.24353 0.26806 -0.16874 -0.093606 0.26863 0.24311 0.082063 -0.071242 -0.12127 0.30178 0.02927 0.11851 -0.20503 -0.16553 -0.38192 0.090932 0.14947 -0.45982 -0.14305 
500gb 0.26364 0.1435 -0.57244 -0.34513 -0.5577 -0.5255 -0.044872 -0.31874 0.23199 0.83799 -0.28333 0.47737 -0.20499 0.09484 -0.28068 -0.39034 -0.098314 -0.1762 0.46441 0.14476 0.065593 -0.42786 -0.022688 0.20798 0.5264 -0.28219 0.46554 0.13252 -0.25421 0.26357 -0.57823 -0.24574 0.27913 -0.27598 -0.36583 0.18561 0.33483 0.14987 -0.16097 -0.32288 0.34863 -0.029636 0.023159 -0.31708 -0.31571 -0.28691 0.12239 -0.049238 -0.32774 -0.3236 
pavilion 0.21735 -0.053887 -0.027211 -0.085925 -0.27017 -0.55436 -0.27447 -0.077603 0.31218 0.37934 -0.30685 0.6808 -0.23997 0.19475 -0.53538 -0.17522 -0.54282 0.02153 0.24178 0.29503 -0.31927 0.0071991 -0.019356 0.028203 0.32415 -0.45984 0.18731 -0.051752 -0.17068 0.041903 -0.40183 0.04396 0.29728 -0.51925 -0.3615 -0.18348 0.25946 0.019712 -0.18935 -0.47214 0.25218 0.0081395 0.0069106 -0.1759 -0.092598 -0.32155 0.12113 0.028616 0.14011 -0.21718 
edition -0.19138 0.015875 -0.10327 -0.010593 -0.1045 -0.028127 -0.14008 -0.0066021 0.34613 0.070411 -0.12587 0.23349 0.073547 0.16538 -0.23245 -0.13156 -0.21297 0.21292 0.14527 0.17727 -0.30224 -0.115 0.064981 0.18101 0.11104 -0.19483 0.21521 0.24713 -0.12353 -0.089512 -0.093503 -0.005775 0.19282 -0.19573 -0.34821 0.034818 0.10919 -0.11854 -0.034874 -0.18737 0.26715 0.23561 0.048874 -0.14932 0.11381 -0.39727 0.15785 0.26905 -0.16152 -0.065845 
20" -0.11741 -0.32629 0.30558 -0.34519 -0.10946 -0.51813 -0.36427 0.096488 0.34458 0.1203 -0.30268 0.60277 -0.2314 0.42283 -0.59411 -0.13456 -0.55935 0.2291 0.32121 0.3498 -0.55829 -0.019448 0.057715 -0.0075199 0.41651 -0.47459 0.18051 -0.051566 0.0060229 -0.081154 -0.30805 0.020102 0.31192 -0.43177 -0.17462 -0.1333 0.32303 0.13028 -0.20005 -0.431 0.32519 -0.13645 0.19722 0.14044 -0.10166 -0.52918 0.086766 0.24434 0.11944 0.031471 
amd 0.2269 0.034423 -0.0097443 -0.28351 -0.35008 -0.53779 -0.18266 -0.11037 0.13167 0.58997 -0.52414 0.67489 -0.26799 0.10101 -0.21747 -0.40535 -0.36586 -0.063063 0.18385 0.16913 0.096759 -0.065677 -0.21265 0.21068 0.42199 -0.31753 0.28046 -0.094234 -0.23048 0.16922 -0.49137 -0.081948 0.10327 -0.1961 -0.577 -0.055823 0.37368 0.12479 -0.18711 -0.42167 0.36936 -0.038308 -0.082082 -0.092083 -0.2677 -0.21063 0.1389 0.055489 -0.042503 -0.28504 
iphone® -0.52841 0.19911 -0.33177 0.078799 0.082587 0.25935 -0.15755 0.13699 0.51867 0.07642 -0.14655 -0.00064431 0.49889 0.072537 -0.076234 -0.1001 0.13369 0.34876 -0.2517 0.19622 -0.31819 -0.31462 -0.023675 0.59024 0.09136 -0.15758 0.35037 0.5349 -0.30432 -0.20868 0.14866 0.097278 0.19556 -0.055794 -0.92234 0.13495 -0.12736 -0.31992 -0.043264 -0.30186 0.48488 0.54215 0.28759 -0.36113 0.46189 -0.53335 0.32696 0.39572 -0.50622 0.020072 
inspiron 0.098461 -0.0049453 -0.031504 0.13221 -0.20112 -0.3426 -0.22409 0.0036311 0.37226 0.2091 -0.25493 0.53803 -0.025332 0.20054 -0.44051 -0.091047 -0.51213 0.16295 0.15949 0.29073 -0.38143 0.025635 0.00074209 0.020326 0.16753 -0.42149 0.097929 0.053086 -0.1503 -0.051367 -0.26338 0.083022 0.22194 -0.48425 -0.36548 -0.22282 0.15969 -0.089281 -0.12568 -0.39563 0.21969 0.15525 0.049934 -0.26976 0.060981 -0.28592 0.16555 0.10638 0.14344 -0.20305 
refurbished 0.096411 0.10137 -0.30986 -0.077821 -0.25126 -0.28292 -0.078077 -0.12583 0.24553 0.46661 -0.18599 0.27879 -0.045952 0.047919 -0.21168 -0.20237 -0.091746 -0.017412 0.15443 0.12496 -0.035031 -0.2135 -0.029642 0.19778 0.2699 -0.2132 0.2347 0.12553 -0.18337 0.088565 -0.29304 -0.071121 0.18812 -0.21269 -0.40918 0.034996 0.13668 0.02074 -0.119 -0.31526 0.25592 0.096544 0.045621 -0.25598 -0.073407 -0.20553 0.12791 0.0048096 -0.16242 -0.23941 
motorola -0.60405 0.040044 -0.16594 0.023309 0.32731 0.19723 -0.19806 0.20302 0.46706 -0.01257 -0.13866 -0.045262 0.34034 0.12621 -0.23083 -0.033313 0.071161 0.33717 -0.1567 0.21333 -0.39411 -0.23771 0.049881 0.49233 0.09473 -0.13559 0.28671 0.39495 -0.17144 -0.30111 0.12912 0.1462 0.31654 -0.094936 -0.82284 0.061654 -0.10163 -0.18648 -0.077466 -0.24881 0.42552 0.41422 0.35517 -0.20001 0.37466 -0.60876 0.27375 0.37999 -0.36051 0.031924 
ipad® -0.3597 0.17375 -0.26024 0.13713 -0.058748 0.14186 -0.14923 0.085481 0.42848 0.07304 -0.14485 0.075276 0.39897 0.072116 -0.069478 -0.094413 0.0059084 0.30186 -0.15466 0.18359 -0.27126 -0.2096 -0.037306 0.41509 0.067332 -0.19159 0.26095 0.4211 -0.23528 -0.11861 0.057708 0.079557 0.11141 -0.12149 -0.69393 0.058398 -0.074905 -0.28134 -0.030797 -0.29167 0.39877 0.42706 0.16822 -0.3058 0.33547 -0.39402 0.25971 0.3148 -0.35888 -0.010085 
netbook 0.084374 0.01617 0.0029002 0.32152 -0.31008 -0.24861 -0.1943 0.0059905 0.4858 0.10762 -0.25457 0.53244 0.067354 0.25554 -0.3225 -0.12911 -0.55437 0.30148 0.26487 0.24562 -0.36227 0.056063 -0.030377 -0.01896 0.067617 -0.3717 0.053169 0.20036 -0.12136 -0.01073 -0.26175 -0.020388 0.14946 -0.46255 -0.21877 -0.18644 0.24455 -0.18296 -0.061206 -0.34695 0.18435 0.27148 -0.0086713 -0.32131 0.075787 -0.201 0.15984 0.26691 0.17295 -0.30448 
silver 0.069876 0.13709 -0.32594 0.043052 -0.20981 -0.21153 -0.0713 -0.11449 0.29117 0.36325 -0.15382 0.28019 0.044512 0.053169 -0.23404 -0.14346 -0.14199 0.0074876 0.13494 0.16266 -0.11213 -0.17847 -0.0070436 0.16121 0.2024 -0.23767 0.2033 0.14887 -0.18986 0.033924 -0.23816 -0.0089528 0.21641 -0.29528 -0.4099 -0.0081104 0.098919 -0.057338 -0.09001 -0.266 0.21748 0.17918 0.061393 -0.33177 0.012345 -0.22865 0.15298 0.02797 -0.12574 -0.23831 
adapter -0.25376 0.050642 -0.21069 0.044602 -0.041019 0.045453 -0.078105 -0.015088 0.40202 0.067972 -0.069198 0.09273 0.20615 0.1401 -0.19907 -0.074922 -0.14299 0.22671 0.17127 0.17118 -0.32316 -0.21342 0.091929 0.17925 0.12715 -0.20002 0.24078 0.31772 -0.10406 -0.11112 -0.039716 0.0071444 0.23433 -0.22643 -0.34588 0.041333 0.047254 -0.13078 -0.043884 -0.15748 0.27471 0.27666 0.12948 -0.2138 0.159 -0.39717 0.15791 0.27132 -0.24363 -0.075745 
most -0.62423 0.025689 -0.17596 0.059186 0.24539 0.22124 -0.1994 0.16629 0.57701 -0.07486 -0.075514 -0.017511 0.35317 0.1887 -0.27261 -0.034125 -0.020711 0.41765 -0.024226 0.20293 -0.49038 -0.24011 0.10509 0.40103 0.078746 -0.17136 0.2822 0.47692 -0.13226 -0.28745 0.12717 0.093141 0.31821 -0.14951 -0.6692 0.052007 -0.04491 -0.1916 -0.059813 -0.23138 0.40655 0.43987 0.32143 -0.19898 0.36747 -0.62142 0.25963 0.45 -0.36823 0.03341 
all-in-one 0.16403 -0.026602 -0.035766 -0.069983 -0.27992 -0.45792 -0.21636 -0.085828 0.32336 0.39221 -0.31876 0.58912 -0.18018 0.20235 -0.41078 -0.19764 -0.44493 0.06732 0.27699 0.27041 -0.22958 -0.068592 -0.038529 0.045061 0.32376 -0.39086 0.188 0.0087203 -0.15571 0.071067 -0.37983 -0.035171 0.23067 -0.41741 -0.3104 -0.13598 0.2755 0.042762 -0.14992 -0.42095 0.25892 0.030289 0.01932 -0.18998 -0.09921 -0.27077 0.10981 0.067782 0.08186 -0.25051 
power -0.40818 0.042318 -0.22766 -0.020335 0.10779 0.11373 -0.091979 0.049962 0.39218 0.028367 -0.05246 -0.028475 0.25719 0.13217 -0.18427 -0.059903 0.013074 0.24302 0.08277 0.15772 -0.34004 -0.2638 0.10515 0.29516 0.12757 -0.13714 0.27504 0.35991 -0.10002 -0.17046 0.032924 0.037962 0.26913 -0.1347 -0.4621 0.098691 -0.0091504 -0.12277 -0.060184 -0.15101 0.32133 0.3005 0.22694 -0.17354 0.21381 -0.48342 0.18338 0.30423 -0.34668 -0.0025101 
lg -0.6687 -0.02223 -0.096363 -0.0028581 0.44562 0.14502 -0.29289 0.28199 0.51877 -0.057736 -0.15401 -0.0020434 0.32419 0.16893 -0.36949 -0.040738 0.00033107 0.36713 -0.22869 0.29207 -0.5549 -0.1742 0.085617 0.51964 0.10608 -0.20954 0.31902 0.35489 -0.19557 -0.38362 0.13473 0.24366 0.41683 -0.17575 -0.94836 0.043025 -0.11943 -0.20982 -0.12856 -0.35351 0.45935 0.45116 0.39936 -0.18633 0.43174 -0.74183 0.30574 0.40242 -0.30582 0.086082 
gateway 0.15612 -0.045194 0.058393 -0.11442 -0.2351 -0.45279 -0.23031 -0.030504 0.26051 0.37336 -0.36848 0.60528 -0.20892 0.19026 -0.36256 -0.22727 -0.45863 0.052797 0.22002 0.20292 -0.15746 0.0079386 -0.078976 0.053538 0.28174 -0.35096 0.15741 -0.04892 -0.15246 0.059902 -0.38825 -0.029839 0.17371 -0.35958 -0.37315 -0.1594 0.28656 0.037393 -0.15616 -0.37183 0.25349 0.011328 -0.013187 -0.097812 -0.14012 -0.24193 0.11148 0.091722 0.098525 -0.21427 
cable -0.37013 0.09667 -0.3564 -0.17496 -0.069992 0.081679 -0.037325 -0.034067 0.36354 0.2675 -0.086206 -0.034331 0.22353 0.095894 -0.035067 -0.22856 0.14975 0.17938 0.13972 0.053059 -0.096237 -0.41265 0.029121 0.38115 0.21093 -0.067899 0.37276 0.41216 -0.15571 -0.043755 -0.042729 -0.14378 0.18794 0.032503 -0.48311 0.2534 0.076108 -0.071975 -0.047291 -0.1289 0.37687 0.25071 0.16588 -0.16474 0.097397 -0.4154 0.17195 0.29389 -0.52716 -0.056185 
technology -0.11917 0.12976 -0.22761 0.090168 -0.20497 -0.0062804 -0.10012 -0.017444 0.34761 0.21286 -0.14622 0.21087 0.15033 0.099882 -0.1075 -0.16022 -0.095368 0.18706 0.094846 0.13104 -0.13268 -0.16345 0.0011623 0.2444 0.086832 -0.15603 0.22377 0.30011 -0.19795 -0.0069444 -0.14663 -0.055791 0.12186 -0.15281 -0.43212 0.080644 0.088124 -0.18151 -0.029443 -0.20628 0.26879 0.31431 0.036952 -0.29645 0.1137 -0.2762 0.16994 0.21474 -0.1995 -0.16059 
belkin -0.35613 0.060982 -0.20688 0.042958 0.032984 0.065926 -0.12934 0.074331 0.40057 0.039238 -0.091135 0.070419 0.235 0.1384 -0.18452 -0.086474 -0.077653 0.26219 0.059017 0.16022 -0.32653 -0.19966 0.056503 0.2808 0.093698 -0.16776 0.24695 0.34346 -0.13384 -0.16083 0.0029677 0.035319 0.22336 -0.14858 -0.49101 0.076629 0.021501 -0.15912 -0.051632 -0.1784 0.31627 0.32773 0.18458 -0.19151 0.22949 -0.4421 0.2072 0.3156 -0.2759 -0.035927 
htc -0.56654 0.094797 -0.25449 0.018731 0.23426 0.19005 -0.15379 0.16667 0.454 0.057953 -0.11478 -0.063346 0.33411 0.116 -0.15806 -0.082929 0.128 0.30651 -0.10631 0.15635 -0.32377 -0.27269 0.045342 0.49044 0.090367 -0.09109 0.30782 0.43054 -0.17994 -0.24589 0.092017 0.079948 0.26498 -0.063189 -0.76586 0.093655 -0.079156 -0.17717 -0.062481 -0.22735 0.41981 0.41754 0.31459 -0.21606 0.32608 -0.53161 0.25554 0.35514 -0.41419 -0.015648 
pci -0.37132 -0.090705 0.13373 -0.80247 -0.11573 -0.12658 -0.1283 0.027991 0.14746 0.53074 -0.66529 0.39527 -0.18355 0.17295 0.14362 -0.78238 -0.052553 0.11551 0.26852 -0.078457 0.29974 -0.33951 -0.21426 0.6549 0.44938 0.023311 0.60307 0.18251 -0.26276 0.061596 -0.38021 -0.39554 0.01321 0.45791 -0.89309 0.44963 0.51999 0.068248 -0.11491 -0.062687 0.68481 0.044746 -0.086457 0.3317 -0.31617 -0.60494 0.16496 0.60642 -0.61345 -0.053566 
sleeve -0.25333 0.093804 -0.22143 0.090531 -0.090802 0.041824 -0.15515 0.014579 0.46862 0.0804 -0.073672 0.18506 0.26871 0.13651 -0.22225 -0.10887 -0.12749 0.26855 0.024507 0.17075 -0.30567 -0.18143 0.033561 0.24942 0.087493 -0.22277 0.2238 0.36789 -0.17901 -0.088132 -0.0094144 0.023174 0.20917 -0.21884 -0.4648 0.044085 0.035483 -0.19374 -0.044637 -0.25213 0.28139 0.36973 0.13414 -0.29038 0.24542 -0.38786 0.21555 0.29447 -0.23945 -0.064515 
1gb -0.055573 0.025247 -0.15918 -0.7345 -0.33796 -0.31635 -0.08654 -0.15977 0.1017 0.74742 -0.5393 0.44827 -0.27645 0.094657 0.016041 -0.69061 0.03881 -0.078485 0.30837 0.0030893 0.35815 -0.41576 -0.1975 0.5293 0.5428 -0.038695 0.6178 0.10387 -0.31739 0.21556 -0.49986 -0.39745 0.10339 0.25278 -0.73034 0.44924 0.47732 0.14179 -0.11558 -0.14801 0.53949 -0.0070125 -0.085238 0.083145 -0.38579 -0.44469 0.14168 0.28603 -0.54994 -0.18966 
2 -0.25572 -0.001922 -0.16378 -0.1444 -0.081145 -0.083091 -0.14206 0.03939 0.26325 0.1538 -0.14798 0.10621 0.14726 0.12729 -0.1202 -0.14909 0.026144 0.18032 0.051108 0.16299 -0.20654 -0.24789 0.0075541 0.30673 0.21958 -0.18705 0.28924 0.24559 -0.12273 -0.074864 -0.10365 -0.019407 0.15693 -0.086081 -0.42919 0.14724 0.064966 -0.056873 -0.078748 -0.23811 0.34479 0.15367 0.17674 -0.13679 0.14145 -0.39585 0.13368 0.22146 -0.29625 0.032847 
pro -0.14722 0.083773 -0.074429 0.128 -0.0094788 -0.052014 -0.15142 0.087803 0.35259 0.13585 -0.23233 0.25206 0.18647 0.086099 -0.15497 -0.11542 -0.17716 0.19361 -0.070198 0.15811 -0.20661 -0.086297 -0.070842 0.26112 0.084954 -0.20309 0.15974 0.20389 -0.18465 -0.11626 -0.067609 0.056044 0.12935 -0.19477 -0.5654 -0.08461 0.052389 -0.18566 -0.059533 -0.24909 0.28371 0.27946 0.085623 -0.23907 0.1797 -0.27114 0.18222 0.22557 -0.098783 -0.10919 
flash -0.054515 0.01114 -0.35525 -0.27714 -0.27828 -0.25896 -0.041456 -0.12797 0.234 0.4457 -0.13933 0.17026 -0.033788 0.12792 -0.17256 -0.25626 -0.086696 0.0023463 0.34675 0.1113 -0.11775 -0.35807 0.053336 0.15724 0.33721 -0.19646 0.34258 0.19916 -0.10135 0.057727 -0.28407 -0.16912 0.21862 -0.11706 -0.21944 0.17677 0.20509 0.070353 -0.092662 -0.15969 0.29843 -0.0067453 0.096258 -0.10818 -0.13152 -0.33488 0.080473 0.11671 -0.33279 -0.11904 
headset -0.36228 0.057468 -0.21955 0.072617 0.015717 0.10931 -0.1155 0.038234 0.44465 0.044889 -0.070564 0.035995 0.24809 0.14246 -0.19021 -0.07797 -0.027155 0.28603 0.091327 0.15053 -0.3166 -0.22683 0.078416 0.28337 0.10149 -0.14088 0.25169 0.3819 -0.12776 -0.14076 -0.0032414 -0.01585 0.23584 -0.152 -0.4822 0.089971 0.019191 -0.14708 -0.050329 -0.19632 0.31026 0.34849 0.17523 -0.21384 0.21428 -0.42573 0.19112 0.3198 -0.30404 -0.088623 
portable -0.095152 0.12459 -0.56335 -0.30605 -0.33532 -0.16684 0.029498 -0.21946 0.27805 0.56184 -0.095372 0.095292 0.04323 0.099101 -0.080572 -0.30598 0.090504 -0.020504 0.39946 0.033778 0.011808 -0.50871 0.056572 0.24593 0.36721 -0.11752 0.42082 0.3278 -0.14909 0.12295 -0.28751 -0.25955 0.22618 -0.064854 -0.28901 0.29137 0.20952 0.071798 -0.082437 -0.12903 0.33904 0.066372 0.11134 -0.19893 -0.14558 -0.34108 0.12154 0.12509 -0.53088 -0.15603 
express -0.45857 -0.10939 0.10702 -0.79925 -0.13908 -0.083888 -0.13678 0.0088471 0.21306 0.47262 -0.61013 0.37849 -0.14738 0.21348 0.10114 -0.73989 -0.062453 0.18219 0.32343 -0.055717 0.19407 -0.39284 -0.13831 0.62436 0.46924 0.01546 0.62005 0.23671 -0.22151 0.019748 -0.32908 -0.41005 0.069628 0.42025 -0.824 0.47258 0.50442 0.058821 -0.080166 -0.011442 0.69569 0.073336 -0.067253 0.33607 -0.2827 -0.67376 0.17042 0.65712 -0.65876 -0.028242 
acer 0.13496 0.11596 -0.23809 0.072854 -0.23101 -0.28452 -0.10183 -0.10616 0.29557 0.36327 -0.22831 0.36888 0.0029707 0.076935 -0.26827 -0.14256 -0.24545 0.027305 0.1314 0.21768 -0.14336 -0.1132 -0.044343 0.13847 0.22542 -0.30946 0.18605 0.10413 -0.2028 0.044326 -0.28323 0.020869 0.20745 -0.36502 -0.42523 -0.088471 0.12486 -0.054211 -0.10926 -0.34067 0.22881 0.17258 0.034166 -0.34997 0.0023986 -0.21917 0.16035 0.026626 -0.043631 -0.27386 
kit -0.22856 0.034176 -0.16022 0.00047597 -0.051932 0.0084951 -0.084567 -0.016144 0.35659 0.067712 -0.13046 0.14445 0.10669 0.15079 -0.20816 -0.1177 -0.11703 0.22029 0.17114 0.14685 -0.24175 -0.16327 0.057041 0.22106 0.14123 -0.1545 0.24971 0.28044 -0.12611 -0.078531 -0.10619 -0.035727 0.19766 -0.15816 -0.38111 0.075737 0.092327 -0.092 -0.031807 -0.14671 0.26263 0.26206 0.097737 -0.16559 0.090676 -0.38408 0.1554 0.27615 -0.21812 -0.09574 
4 -0.39016 0.14243 -0.29525 0.0044943 -0.030318 0.16439 -0.1383 0.03688 0.38494 0.079473 -0.12115 0.062663 0.34288 0.077211 -0.068848 -0.13956 0.074749 0.27883 -0.10892 0.19241 -0.25552 -0.27653 0.00036765 0.43631 0.11792 -0.16328 0.34064 0.42976 -0.24037 -0.090529 0.084632 0.046781 0.14498 -0.061545 -0.67177 0.12939 -0.057669 -0.21935 -0.04178 -0.25308 0.41486 0.417 0.18106 -0.25305 0.30042 -0.45745 0.24638 0.30951 -0.4115 0.016453 
charger -0.39549 0.01607 -0.12438 0.022383 0.12309 0.11833 -0.13278 0.07831 0.42831 0.0075923 -0.096981 0.026411 0.24236 0.13941 -0.20465 -0.075543 -0.059595 0.29207 0.050915 0.16849 -0.3378 -0.20731 0.078358 0.29507 0.10192 -0.15364 0.25233 0.34033 -0.11714 -0.1775 0.04542 0.035845 0.24907 -0.13795 -0.49781 0.055874 0.0064461 -0.15154 -0.053049 -0.18272 0.32432 0.32901 0.1865 -0.16603 0.22783 -0.46631 0.19102 0.33389 -0.27226 -0.031663 
microsoft -0.32462 -0.019128 -0.035586 0.017801 0.044006 0.065961 -0.14143 0.073207 0.39693 0.0092095 -0.13306 0.13344 0.15656 0.17594 -0.20602 -0.094626 -0.15582 0.29994 0.10756 0.16101 -0.31637 -0.12086 0.052592 0.1934 0.083848 -0.15601 0.1948 0.2803 -0.076658 -0.12874 -0.0099458 0.0076114 0.18479 -0.14257 -0.36005 -0.0075898 0.06968 -0.099887 -0.0347 -0.17739 0.28489 0.23908 0.13126 -0.10551 0.16306 -0.38019 0.14481 0.31425 -0.17529 -0.031041 
rocketfish™ -0.31654 0.14295 -0.30485 0.059686 0.0023786 0.092808 -0.092858 0.045462 0.3915 0.13149 -0.096352 0.037382 0.27281 0.068222 -0.12379 -0.090819 0.031156 0.20986 -0.038475 0.13568 -0.21624 -0.2416 0.015455 0.33832 0.09342 -0.12888 0.2352 0.34826 -0.17507 -0.12019 0.010257 0.026833 0.18214 -0.11028 -0.57111 0.081478 -0.027166 -0.15916 -0.045578 -0.19522 0.31745 0.34168 0.20221 -0.25757 0.24535 -0.3639 0.20769 0.24851 -0.32095 -0.074929 
mac -0.23634 0.15436 -0.28951 0.0649 -0.083967 0.073824 -0.097624 -0.013155 0.33918 0.13921 -0.14351 0.12118 0.23193 0.074405 -0.10936 -0.12099 -0.022245 0.18485 0.0053956 0.14088 -0.2028 -0.21613 -0.015571 0.3061 0.10441 -0.14634 0.25067 0.33004 -0.18177 -0.066306 -0.034071 0.031526 0.1476 -0.1079 -0.52378 0.030487 0.027287 -0.13237 -0.015873 -0.17352 0.31473 0.3147 0.11681 -0.25322 0.18187 -0.33432 0.21546 0.23783 -0.30712 -0.070099 
targus -0.29841 0.050207 -0.13724 0.011688 -0.029156 0.076556 -0.12795 0.038578 0.4053 0.095602 -0.12553 0.11034 0.20958 0.1337 -0.13564 -0.14185 -0.069513 0.27166 0.072247 0.12477 -0.2294 -0.19115 0.021694 0.28108 0.1035 -0.13958 0.24592 0.33533 -0.14584 -0.098169 -0.024284 -0.035989 0.16592 -0.08725 -0.45228 0.084696 0.071697 -0.14291 -0.030714 -0.18665 0.3136 0.30828 0.11379 -0.17962 0.17652 -0.39063 0.17496 0.3145 -0.27917 -0.05747 
6gb 0.45065 0.11268 -0.43987 -0.30664 -0.61358 -0.70056 -0.15902 -0.33783 0.27041 0.91732 -0.3878 0.72857 -0.34561 0.096106 -0.4096 -0.42962 -0.26153 -0.20119 0.40324 0.25941 0.087371 -0.31848 -0.10474 0.18926 0.57295 -0.38385 0.43056 0.0080713 -0.33976 0.31551 -0.67375 -0.22134 0.29757 -0.40921 -0.46671 0.08539 0.3908 0.13514 -0.1844 -0.49306 0.33665 -0.01768 -0.051667 -0.37869 -0.33304 -0.25526 0.15042 -0.13128 -0.12476 -0.42631 
clear -0.75313 0.059947 -0.1676 0.013658 0.37953 0.23774 -0.24504 0.24773 0.61088 -0.02353 -0.16554 -0.05347 0.41685 0.17306 -0.25562 -0.080516 0.050181 0.43629 -0.1172 0.22958 -0.4647 -0.31116 0.053434 0.56773 0.11397 -0.15506 0.36834 0.49579 -0.19434 -0.36307 0.14355 0.1153 0.35371 -0.094863 -0.94701 0.080707 -0.082078 -0.22715 -0.086914 -0.24106 0.50721 0.53721 0.37686 -0.18582 0.42984 -0.71501 0.31432 0.5105 -0.45237 0.01336 
ii 0.16675 0.14876 -0.18516 -0.057319 -0.25319 -0.35328 -0.12314 -0.081685 0.20286 0.54096 -0.378 0.46019 -0.085065 0.013441 -0.15722 -0.31221 -0.22493 -0.042605 0.032657 0.12656 0.07468 -0.11171 -0.18006 0.26517 0.27059 -0.26289 0.23215 0.044178 -0.26627 0.090094 -0.35313 -0.043147 0.099812 -0.19601 -0.63651 -0.067118 0.18953 -0.029051 -0.13683 -0.34643 0.33164 0.11773 -0.056877 -0.23978 -0.072724 -0.16829 0.15638 0.030587 -0.095223 -0.28497 
mini -0.093795 -0.057213 0.046901 0.10809 -0.13379 -0.17588 -0.20044 0.059666 0.4209 0.10622 -0.23446 0.39295 0.035524 0.25506 -0.31334 -0.1375 -0.42118 0.29753 0.20658 0.23424 -0.35104 0.0024751 0.015017 0.061883 0.11906 -0.3108 0.11713 0.18129 -0.076415 -0.058327 -0.18328 -0.0031031 0.17622 -0.31943 -0.26621 -0.12205 0.19399 -0.1036 -0.076808 -0.32769 0.25065 0.19063 0.064162 -0.16948 0.075954 -0.31762 0.14326 0.25722 0.056737 -0.15263 
laser -0.33143 -0.061679 -0.046074 0.040293 0.082259 0.017511 -0.18711 0.071469 0.47781 -0.039047 -0.055924 0.14871 0.20099 0.21293 -0.37827 -0.020369 -0.23387 0.31449 0.092134 0.27203 -0.51259 -0.1278 0.13148 0.16822 0.12126 -0.28006 0.20114 0.28096 -0.080984 -0.1843 0.026233 0.10279 0.3157 -0.32045 -0.3722 -0.039097 0.011615 -0.13122 -0.084112 -0.2851 0.28524 0.26818 0.20164 -0.17727 0.25295 -0.50586 0.16828 0.29573 -0.13873 -0.0037746 
vaio 0.30315 0.16484 -0.22273 0.28656 -0.433 -0.33061 -0.16259 -0.091054 0.34019 0.41862 -0.2374 0.58583 -0.05259 0.1144 -0.28973 -0.20696 -0.35947 0.08188 0.13409 0.24234 -0.12535 0.025112 -0.039872 0.10389 0.11045 -0.32414 0.14176 0.13754 -0.29471 0.099759 -0.41376 -0.03589 0.15756 -0.44618 -0.41514 -0.088651 0.20719 -0.22135 -0.075769 -0.40403 0.17619 0.31259 -0.11621 -0.5211 0.0059464 -0.14722 0.17087 0.022634 0.1269 -0.38821 
platinum -0.20563 0.099542 -0.21687 -0.012465 0.013309 0.0034591 -0.11849 0.036203 0.30353 0.20452 -0.15115 0.10722 0.13943 0.049685 -0.14129 -0.13671 0.012159 0.13508 -0.057268 0.1265 -0.13091 -0.17769 -0.02096 0.33415 0.121 -0.1123 0.24389 0.2434 -0.20012 -0.075387 -0.054425 0.017207 0.17581 -0.089578 -0.57312 0.061272 0.0034519 -0.11037 -0.067597 -0.22671 0.29485 0.26601 0.14344 -0.22061 0.14851 -0.32617 0.1817 0.16521 -0.24139 -0.084617 
adobe -0.34992 0.083637 -0.19981 0.01271 -0.047816 0.16869 -0.10837 0.021013 0.37815 0.036022 -0.083797 0.027993 0.24095 0.1218 -0.075489 -0.10853 -0.0020634 0.26722 0.034413 0.13239 -0.23549 -0.23743 0.051502 0.309 0.087194 -0.10613 0.2523 0.37691 -0.13563 -0.10329 0.062165 -0.025521 0.13457 -0.040535 -0.42887 0.11085 0.014237 -0.15483 0.017061 -0.14727 0.30795 0.33331 0.11487 -0.17624 0.22156 -0.39143 0.18279 0.31952 -0.32308 -0.02652 
mac/windows -0.24322 0.026817 -0.076017 -0.0031293 -0.047982 0.05863 -0.1213 0.031125 0.32313 0.050025 -0.12804 0.1217 0.14588 0.12719 -0.12301 -0.10708 -0.11022 0.23382 0.069825 0.12772 -0.22015 -0.13704 0.022621 0.21784 0.087589 -0.12774 0.19823 0.25603 -0.10469 -0.077127 -0.014262 -0.02122 0.12384 -0.074756 -0.34957 0.037316 0.070057 -0.10775 -0.013562 -0.14413 0.2614 0.23676 0.076317 -0.11796 0.13359 -0.33075 0.14516 0.26623 -0.20493 -0.034097 
instant -0.33111 -0.11551 0.15478 0.23534 -0.089816 -0.04145 -0.3225 0.12392 0.7156 -0.17203 -0.078937 0.44298 0.19003 0.39563 -0.48033 -0.047351 -0.60109 0.55786 0.23456 0.26788 -0.67875 0.027741 0.11012 -0.021709 -0.0036033 -0.38424 0.084797 0.38611 -0.046594 -0.19828 -0.015855 0.007 0.23233 -0.46439 -0.22152 -0.21125 0.16338 -0.21233 -0.055127 -0.31902 0.23632 0.35171 0.10496 -0.1514 0.2615 -0.46175 0.17914 0.52076 0.043871 -0.047901 
system -0.13118 0.086937 -0.2623 -0.02392 -0.13957 -0.042657 -0.064182 -0.063564 0.31615 0.2285 -0.10878 0.16339 0.10961 0.098988 -0.15693 -0.14942 -0.074831 0.12174 0.16261 0.11493 -0.14663 -0.21598 0.031741 0.19713 0.15182 -0.14788 0.24741 0.25245 -0.14651 -0.017084 -0.14046 -0.055835 0.17885 -0.15793 -0.35312 0.078461 0.09087 -0.077009 -0.050081 -0.17366 0.25284 0.21064 0.070108 -0.22131 0.048982 -0.30724 0.14528 0.17277 -0.24693 -0.1155 
hd -0.40613 -0.30595 0.32388 -0.52324 0.11897 -0.22928 -0.28948 0.18831 0.2149 0.08166 -0.3519 0.29779 -0.11775 0.30699 -0.26892 -0.26831 -0.22682 0.24454 0.13506 0.15949 -0.32717 -0.10766 -0.0009557 0.29851 0.36138 -0.19601 0.28806 0.036283 -0.011979 -0.12373 -0.13054 -0.023149 0.21 0.025316 -0.4664 0.10727 0.25095 0.1116 -0.15394 -0.26322 0.44987 -0.066307 0.18292 0.33284 -0.061993 -0.57916 0.10091 0.39724 -0.19281 0.1572 
switch -0.34955 -0.00024922 -0.086709 0.17926 -0.050659 0.043821 -0.16001 0.06147 0.55034 -0.10487 -0.082791 0.2126 0.22754 0.24794 -0.31511 -0.047768 -0.32735 0.40848 0.25985 0.20838 -0.5169 -0.12662 0.12697 0.12852 0.051134 -0.24841 0.17313 0.37912 -0.061203 -0.1892 -0.044768 0.011564 0.24856 -0.31056 -0.30484 -0.031805 0.092525 -0.19887 -0.016363 -0.15737 0.26635 0.36309 0.131 -0.1959 0.21896 -0.46145 0.19281 0.43137 -0.132 -0.11286 
savings) -0.33534 -0.17506 0.27806 0.17988 -0.053538 -0.095921 -0.37833 0.15646 0.71693 -0.20861 -0.12369 0.52414 0.10934 0.39661 -0.54234 -0.063094 -0.66672 0.56566 0.24875 0.25833 -0.67891 0.060312 0.078763 -0.017093 0.0071155 -0.3865 0.086698 0.33298 -0.033588 -0.20881 -0.034768 0.031176 0.24107 -0.4524 -0.23227 -0.22328 0.20089 -0.1696 -0.068278 -0.31963 0.26367 0.32446 0.077682 -0.060389 0.24167 -0.47082 0.15774 0.54106 0.098848 -0.041498 
gray 0.042723 0.084211 -0.035149 -0.18267 -0.1856 -0.22498 -0.12974 -0.042379 0.18386 0.44594 -0.40023 0.41895 -0.093091 0.035817 -0.072408 -0.36529 -0.15702 -0.0029845 0.015853 0.046161 0.15734 -0.095726 -0.1861 0.34111 0.22976 -0.14263 0.25047 0.031871 -0.27078 0.082378 -0.28408 -0.10933 0.055914 -0.019127 -0.67891 0.062313 0.22754 -0.03823 -0.09769 -0.25463 0.33053 0.13961 -0.089366 -0.098725 -0.11396 -0.21785 0.14365 0.15473 -0.16482 -0.21565 
widescreen -0.46641 -0.37845 0.35583 -0.32043 0.11596 -0.28025 -0.39707 0.26689 0.43236 -0.12084 -0.25629 0.39554 -0.051219 0.46492 -0.54047 -0.090249 -0.46732 0.40481 0.20617 0.31881 -0.72116 -0.01254 0.13273 0.12772 0.30666 -0.39342 0.19113 0.082937 0.050524 -0.24808 -0.11845 0.072528 0.32122 -0.29683 -0.32427 -0.049186 0.22624 0.031496 -0.16093 -0.35582 0.38918 0.012702 0.31374 0.22768 0.094293 -0.68553 0.13755 0.44756 -0.012079 0.18488 
graphics -0.38482 -0.04377 0.094981 -0.78293 -0.11129 -0.080877 -0.13443 0.012124 0.15947 0.55472 -0.65132 0.37097 -0.14434 0.13181 0.14391 -0.76247 -0.00071505 0.11673 0.17497 -0.071707 0.3195 -0.35438 -0.21376 0.72023 0.45304 0.030604 0.62552 0.19192 -0.31138 0.040573 -0.31635 -0.36951 0.047537 0.47582 -1.0093 0.47867 0.45726 0.030978 -0.096397 -0.069148 0.69505 0.12077 -0.10123 0.2742 -0.27084 -0.62033 0.1912 0.58192 -0.65985 -0.054908 
atom™ 0.26774 0.093902 -0.089669 0.24346 -0.37382 -0.43469 -0.22202 -0.031328 0.37337 0.35876 -0.37043 0.69103 -0.10256 0.19446 -0.39512 -0.19178 -0.58775 0.13265 0.20292 0.28447 -0.22528 0.10864 -0.09155 0.027648 0.1711 -0.43829 0.098359 0.056621 -0.21524 0.069528 -0.42006 0.0083073 0.18315 -0.50822 -0.39396 -0.22226 0.28047 -0.13601 -0.12794 -0.46028 0.22029 0.20296 -0.054342 -0.39062 -0.0041096 -0.1918 0.16909 0.074993 0.23761 -0.37382 
desktop, -0.15473 -0.38185 0.39652 -0.31973 -0.066414 -0.50459 -0.40111 0.12808 0.386 0.09206 -0.38019 0.68262 -0.24276 0.47192 -0.6444 -0.16023 -0.68055 0.31786 0.4273 0.39589 -0.63476 0.029763 0.099805 -0.038174 0.40815 -0.50695 0.20793 -0.050923 0.021883 -0.097108 -0.3416 0.032098 0.3554 -0.47492 -0.15493 -0.17063 0.3726 0.131 -0.19723 -0.44581 0.33973 -0.11471 0.18538 0.16902 -0.1008 -0.59641 0.089781 0.31047 0.16497 0.026867 
pc -0.26112 -0.040761 0.060938 -0.21573 -0.064312 -0.062093 -0.1449 0.092489 0.29989 0.18994 -0.33732 0.27015 0.0015663 0.20073 -0.063337 -0.32324 -0.17236 0.24482 0.16191 0.063274 -0.081121 -0.14487 -0.062692 0.30791 0.19199 -0.11172 0.26985 0.21746 -0.13349 -0.040295 -0.18937 -0.17112 0.068686 0.053612 -0.46987 0.12173 0.27514 -0.06107 -0.062878 -0.13564 0.37908 0.15845 0.050652 0.039147 -0.030788 -0.39805 0.13935 0.41413 -0.22619 -0.079045 
blackberry -0.43833 0.16627 -0.34989 0.071794 0.18178 0.17217 -0.10727 0.10013 0.41517 0.13648 -0.0978 -0.082955 0.33998 0.021456 -0.12779 -0.071744 0.16576 0.22024 -0.1744 0.15412 -0.23247 -0.26477 0.016847 0.47996 0.075578 -0.090327 0.29192 0.39989 -0.22499 -0.19296 0.087153 0.10744 0.24348 -0.067848 -0.78179 0.096635 -0.11613 -0.19136 -0.062918 -0.2447 0.37001 0.42456 0.27398 -0.31266 0.32329 -0.45157 0.26193 0.24466 -0.39597 -0.05571 
2gb 0.19381 0.054933 -0.32482 -0.55129 -0.48953 -0.52308 -0.10103 -0.25076 0.14737 0.79137 -0.42277 0.54292 -0.33292 0.11631 -0.20174 -0.50977 -0.067737 -0.16072 0.38614 0.13555 0.21194 -0.38256 -0.13502 0.31774 0.57769 -0.21421 0.51897 0.036923 -0.28658 0.28004 -0.60429 -0.31364 0.18109 -0.093641 -0.47406 0.27416 0.43782 0.19678 -0.14476 -0.2848 0.4037 -0.068237 -0.027354 -0.12896 -0.37775 -0.32014 0.11905 0.047929 -0.32629 -0.27666 
incase -0.34409 0.12563 -0.16066 0.17075 -0.067637 0.17354 -0.16282 0.058331 0.54272 0.018312 -0.070504 0.13929 0.38085 0.13264 -0.15545 -0.092988 -0.11543 0.36545 -0.076988 0.17414 -0.33186 -0.19173 0.0079647 0.31784 0.031754 -0.21424 0.21644 0.45233 -0.20514 -0.11532 0.10408 0.020815 0.14733 -0.16573 -0.55229 0.024028 -0.013124 -0.27374 -0.020948 -0.29648 0.33647 0.46124 0.12739 -0.31245 0.34939 -0.38283 0.23024 0.36291 -0.28361 -0.038978 
23" 0.038356 -0.2989 0.2598 -0.28887 -0.18211 -0.64856 -0.37026 0.048773 0.33576 0.24338 -0.35243 0.72747 -0.29144 0.39743 -0.64994 -0.14889 -0.64329 0.15721 0.3546 0.38716 -0.52836 0.0014476 0.039108 -0.064749 0.45178 -0.54197 0.15824 -0.12223 -0.021761 -0.031638 -0.41371 0.040933 0.33075 -0.54924 -0.18892 -0.21211 0.34314 0.15418 -0.2318 -0.50446 0.29744 -0.16134 0.16554 0.042265 -0.14159 -0.46656 0.085093 0.14136 0.19738 -0.056769 
zagg -0.7391 0.07688 -0.14518 -0.019993 0.39716 0.18941 -0.2812 0.29202 0.56019 0.030756 -0.20102 -0.014406 0.36811 0.1602 -0.23313 -0.099543 0.072472 0.39284 -0.23012 0.19221 -0.38571 -0.29068 -0.0024773 0.59251 0.1027 -0.14586 0.35846 0.42895 -0.20875 -0.34526 0.12818 0.10727 0.31213 -0.024959 -1.016 0.079508 -0.08673 -0.20505 -0.10807 -0.26444 0.50622 0.50606 0.38613 -0.14197 0.41912 -0.65858 0.30007 0.46843 -0.42574 0.035462 
logitech -0.30668 0.023292 -0.15572 0.056026 -0.067343 0.079818 -0.1222 0.023644 0.43977 0.034802 -0.065817 0.115 0.1986 0.17344 -0.19399 -0.094014 -0.13318 0.29951 0.15503 0.16967 -0.3373 -0.19445 0.095216 0.19235 0.085409 -0.18198 0.2346 0.35258 -0.10155 -0.10685 -0.032538 -0.022766 0.20316 -0.18239 -0.31597 0.07473 0.057823 -0.15028 -0.019028 -0.1694 0.28309 0.2946 0.12149 -0.19122 0.18283 -0.41247 0.16078 0.31933 -0.23072 -0.049446 
computer 0.23459 0.042761 -0.15937 -0.022221 -0.30299 -0.47983 -0.14842 -0.15543 0.31726 0.45781 -0.29471 0.5924 -0.16234 0.13941 -0.43618 -0.17679 -0.46799 -0.0077197 0.31045 0.25642 -0.21618 -0.10215 -0.029376 0.014247 0.33352 -0.41251 0.19209 0.00086361 -0.16229 0.080987 -0.41352 -0.0075457 0.26054 -0.50665 -0.34846 -0.19265 0.23883 0.033014 -0.15945 -0.3721 0.25147 0.038093 -0.0044208 -0.26262 -0.1306 -0.24309 0.12069 0.0021921 0.055283 -0.29826 
keyboard -0.32084 -0.0017212 -0.090589 -0.093746 -0.010527 0.038095 -0.13337 0.050775 0.34175 0.090102 -0.15525 0.11084 0.17281 0.14246 -0.13002 -0.16219 -0.066115 0.24939 0.07228 0.14438 -0.24532 -0.20596 0.023051 0.29213 0.15864 -0.1451 0.27087 0.28697 -0.11958 -0.092882 -0.025067 -0.013744 0.16674 -0.064909 -0.44973 0.10315 0.071132 -0.089269 -0.050793 -0.20395 0.34665 0.22335 0.13055 -0.086536 0.14096 -0.41636 0.15397 0.3143 -0.29623 0.0065224 
router -0.32122 -0.027122 -0.094983 0.063448 -0.026776 -0.0068139 -0.10967 0.017769 0.50038 -0.054288 -0.062128 0.19399 0.17299 0.2523 -0.3308 -0.037735 -0.3366 0.32403 0.33647 0.18086 -0.50226 -0.17547 0.13844 0.056175 0.12001 -0.25778 0.17825 0.32383 -0.011432 -0.16419 -0.068055 0.00010246 0.27543 -0.34867 -0.22725 -0.053562 0.11367 -0.11174 -0.05272 -0.12437 0.26093 0.24557 0.14841 -0.11443 0.12722 -0.43665 0.1519 0.39377 -0.15336 -0.083346 
ddr3 0.012341 0.014 -0.14411 -0.64994 -0.35649 -0.3462 -0.069709 -0.16373 0.068953 0.71804 -0.55352 0.47496 -0.29723 0.10367 -0.014633 -0.62324 -0.042925 -0.064534 0.32079 0.021029 0.3248 -0.33429 -0.16791 0.4627 0.53136 -0.09528 0.54153 0.059903 -0.29512 0.21999 -0.53819 -0.3471 0.076506 0.17212 -0.67043 0.34168 0.45678 0.16293 -0.11089 -0.17309 0.50938 -0.03219 -0.095212 0.067605 -0.38961 -0.38855 0.11989 0.22309 -0.44248 -0.19502 
netgear -0.39494 -0.086567 0.049081 0.034751 0.024515 0.011122 -0.17752 0.099253 0.51226 -0.075904 -0.16077 0.2071 0.16067 0.28162 -0.29415 -0.092794 -0.32277 0.3993 0.2878 0.18432 -0.474 -0.13898 0.11019 0.14776 0.1242 -0.22561 0.19694 0.31405 -0.041139 -0.18469 -0.058362 -0.03207 0.24402 -0.24402 -0.31071 -0.0048598 0.15234 -0.1243 -0.045189 -0.15595 0.30484 0.28361 0.14675 -0.050543 0.14577 -0.48535 0.16791 0.47198 -0.13839 -0.082894 
(unlocked) -0.41019 0.11153 -0.23982 0.014921 0.14169 0.11002 -0.10999 0.10442 0.40076 0.12577 -0.11771 -0.0066212 0.23984 0.05924 -0.13958 -0.10487 0.10438 0.218 -0.11279 0.12191 -0.20585 -0.22964 0.0041718 0.40744 0.089888 -0.074556 0.23941 0.34149 -0.18456 -0.16334 0.039327 0.031889 0.20704 -0.049095 -0.67849 0.082575 -0.031424 -0.1283 -0.056506 -0.2274 0.33724 0.3441 0.25047 -0.21074 0.24474 -0.3857 0.22409 0.25575 -0.32823 -0.074398 
wireless-n -0.45158 -0.15634 0.064241 -0.1037 -0.0029823 -0.045566 -0.16653 0.094675 0.47327 -0.07634 -0.1513 0.23331 0.078697 0.33565 -0.32016 -0.11924 -0.34187 0.38924 0.37646 0.1452 -0.50754 -0.15691 0.14419 0.093997 0.15801 -0.20851 0.2179 0.28257 0.030522 -0.1823 -0.088642 -0.075207 0.24031 -0.20638 -0.19256 0.036211 0.21601 -0.046031 -0.058714 -0.080543 0.3086 0.15416 0.1667 0.088214 0.079279 -0.52524 0.13333 0.50271 -0.17896 -0.00031713 
optical -0.30829 -0.064162 -0.066874 -0.029503 -0.062503 -0.016379 -0.13542 0.040023 0.41183 0.052215 -0.099526 0.1901 0.11636 0.24423 -0.24993 -0.15229 -0.23121 0.30974 0.23945 0.17995 -0.36666 -0.14357 0.089826 0.1239 0.11622 -0.2119 0.23465 0.32147 -0.040101 -0.10566 -0.074702 -0.040993 0.21438 -0.19271 -0.24403 0.018299 0.13632 -0.059606 -0.065481 -0.19739 0.29575 0.17967 0.11945 -0.10085 0.11244 -0.413 0.12556 0.36012 -0.18625 -0.024362 
galaxy -0.43625 0.043383 -0.066654 -0.31981 0.14086 0.059026 -0.13516 0.12227 0.23753 0.24009 -0.32457 0.084454 0.10992 0.072864 0.0027216 -0.34021 0.097785 0.17969 -0.068922 0.037111 0.013835 -0.24238 -0.09536 0.54838 0.19505 -0.0011038 0.37347 0.25168 -0.207 -0.12095 -0.053518 -0.077979 0.12043 0.20473 -0.83305 0.22357 0.10824 -0.062142 -0.076563 -0.13058 0.47621 0.23577 0.12744 0.034661 0.073025 -0.47723 0.2012 0.38258 -0.43958 -0.013215 
suite -0.16236 0.12198 -0.23885 0.13408 -0.17652 0.064637 -0.087354 -0.059272 0.40278 0.080411 -0.052947 0.17572 0.16607 0.11947 -0.15453 -0.081867 -0.12109 0.20047 0.12755 0.12655 -0.22726 -0.1593 0.042131 0.13882 0.036578 -0.13497 0.15713 0.3266 -0.13854 -0.047276 -0.062369 -0.033372 0.13427 -0.19148 -0.2812 0.014188 0.054796 -0.1525 0.010064 -0.12737 0.20054 0.30263 0.058392 -0.23911 0.14763 -0.26094 0.16774 0.2171 -0.17519 -0.11474 
pink -0.20516 0.064529 -0.16791 0.047774 -0.11341 -0.0016705 -0.11535 0.03086 0.37514 0.14973 -0.12202 0.15002 0.18478 0.13207 -0.1182 -0.1492 -0.08202 0.23733 0.068403 0.13048 -0.2013 -0.18081 -0.0010057 0.2352 0.094795 -0.15747 0.21306 0.31292 -0.147 -0.057717 -0.070744 -0.046422 0.1276 -0.12313 -0.39116 0.060717 0.079125 -0.14827 -0.046568 -0.21864 0.28575 0.26998 0.10563 -0.20995 0.14507 -0.29925 0.15768 0.26165 -0.2201 -0.080882 
duo 0.16529 0.066031 -0.11789 0.091662 -0.36911 -0.3264 -0.16936 -0.086809 0.35146 0.3802 -0.29017 0.56722 -0.06589 0.18091 -0.31044 -0.23431 -0.40913 0.12067 0.24804 0.22724 -0.16816 -0.030794 -0.023047 0.079486 0.20177 -0.33584 0.17749 0.12102 -0.20994 0.074462 -0.39879 -0.082869 0.16983 -0.3757 -0.34232 -0.07384 0.27322 -0.11775 -0.087901 -0.35632 0.23193 0.19049 -0.053685 -0.3212 -0.054959 -0.24409 0.12927 0.10991 0.049187 -0.30707 
flat-panel -0.38208 -0.32326 0.21234 -0.24922 0.090048 -0.29999 -0.34696 0.22666 0.38935 -0.039198 -0.22206 0.3298 -0.023734 0.38235 -0.51065 -0.065588 -0.40244 0.32298 0.18526 0.32778 -0.66217 -0.044646 0.12366 0.12135 0.30467 -0.37565 0.19714 0.07774 0.031321 -0.21996 -0.11778 0.10654 0.34947 -0.31938 -0.28861 -0.042734 0.17475 0.025616 -0.16929 -0.35919 0.35383 0.0075783 0.30541 0.13064 0.07914 -0.64075 0.13974 0.33901 -0.015467 0.14347 
i5 0.53424 0.18489 -0.26279 0.14992 -0.55788 -0.69663 -0.23776 -0.17602 0.34536 0.79581 -0.52512 0.88997 -0.19226 0.066456 -0.411 -0.27917 -0.59368 -0.087558 0.17804 0.29191 -0.033469 -0.035818 -0.20772 0.10839 0.37847 -0.55898 0.1759 -0.067249 -0.37921 0.19271 -0.63355 -0.0026404 0.16925 -0.60076 -0.66522 -0.31558 0.29805 -0.030257 -0.20089 -0.61163 0.29297 0.11283 -0.10557 -0.51859 -0.15814 -0.1136 0.20451 -0.12737 0.16483 -0.52123 
invisibleshield -0.70356 0.092031 -0.18918 0.0049982 0.34691 0.18041 -0.25716 0.26907 0.54362 0.046064 -0.18819 -0.01587 0.38626 0.15161 -0.22053 -0.10246 0.080397 0.38381 -0.21104 0.19548 -0.37612 -0.2796 -0.0092469 0.5799 0.090276 -0.1514 0.34369 0.42765 -0.21329 -0.34269 0.13502 0.12446 0.31331 -0.043799 -1.022 0.082401 -0.090465 -0.20084 -0.10028 -0.27017 0.49159 0.5035 0.37065 -0.18521 0.40912 -0.6413 0.32189 0.44325 -0.44531 0.0035657 
home -0.21863 -0.036294 -0.034275 -0.038594 -0.074325 -0.065441 -0.15252 0.027141 0.35351 0.085971 -0.14052 0.23308 0.075579 0.20291 -0.22873 -0.11726 -0.20826 0.23868 0.17098 0.15253 -0.29304 -0.12683 0.042857 0.12786 0.14829 -0.19384 0.1704 0.22328 -0.06491 -0.066699 -0.091986 -0.03549 0.16826 -0.18314 -0.2696 -0.010268 0.13096 -0.055786 -0.052693 -0.20957 0.25086 0.15301 0.11391 -0.078515 0.074392 -0.34223 0.12223 0.25677 -0.13303 -0.053072 
compaq -0.02133 -0.017548 0.001366 0.030872 -0.065652 -0.2504 -0.21779 0.013409 0.32182 0.15116 -0.21062 0.41101 -0.024645 0.14424 -0.38672 -0.0789 -0.36619 0.13321 0.062295 0.2462 -0.32545 0.0058038 -0.011115 0.088761 0.16782 -0.32351 0.13325 0.060368 -0.13193 -0.065507 -0.16073 0.092383 0.22162 -0.37024 -0.40464 -0.15971 0.10722 -0.061126 -0.11774 -0.32986 0.22992 0.13397 0.06727 -0.16681 0.075734 -0.3219 0.13693 0.12494 0.039684 -0.09474 
bluetooth -0.29608 0.10245 -0.26354 0.11765 0.00022726 0.064231 -0.11365 0.064081 0.40073 0.082225 -0.09207 0.077083 0.23915 0.10427 -0.14808 -0.078209 -0.037241 0.25325 0.029132 0.15088 -0.26107 -0.19179 0.034637 0.28617 0.070039 -0.1536 0.22121 0.33208 -0.15724 -0.12597 -0.042992 0.025761 0.20435 -0.15619 -0.50066 0.063243 0.011829 -0.16878 -0.039454 -0.17893 0.29164 0.34207 0.19054 -0.26727 0.21816 -0.37528 0.20834 0.26668 -0.23979 -0.092317 
western -0.11897 0.15025 -0.72645 -0.3706 -0.43782 -0.17579 0.11732 -0.32534 0.29439 0.61801 -0.038488 0.08761 0.050085 0.14613 -0.11286 -0.33491 0.065971 -0.033268 0.6493 0.010008 -0.052991 -0.60733 0.15845 0.1666 0.40921 -0.093051 0.4922 0.39733 -0.10886 0.13744 -0.39717 -0.30601 0.29699 -0.12803 -0.155 0.35958 0.28608 0.11319 -0.072851 -0.038749 0.35066 0.04992 0.10317 -0.20649 -0.23021 -0.4169 0.12948 0.16052 -0.64579 -0.1581 
satellite 0.25533 0.14737 -0.28892 0.20073 -0.38174 -0.3425 -0.17185 -0.16154 0.42133 0.45392 -0.2281 0.55944 -0.042751 0.097153 -0.37918 -0.18041 -0.39399 0.043572 0.22259 0.23003 -0.15513 -0.082665 -0.035177 0.06841 0.18492 -0.35643 0.17475 0.13665 -0.26856 0.092768 -0.38458 -0.02177 0.24278 -0.48893 -0.41382 -0.13651 0.17966 -0.11599 -0.10502 -0.40002 0.19891 0.24963 -0.06297 -0.45872 -0.013564 -0.1966 0.18517 -0.009392 0.056131 -0.37612 
otterbox -0.56667 0.13692 -0.33693 0.017436 0.13485 0.2443 -0.12181 0.099258 0.48681 0.03033 -0.079739 -0.033792 0.41617 0.12235 -0.15598 -0.10085 0.060739 0.33815 -0.086896 0.20458 -0.39176 -0.30995 0.079772 0.48978 0.092464 -0.12762 0.37329 0.51331 -0.20525 -0.23239 0.10455 0.087767 0.27753 -0.1058 -0.76377 0.13842 -0.089644 -0.23789 -0.055137 -0.20945 0.46236 0.4853 0.30069 -0.27157 0.36542 -0.62269 0.29613 0.3974 -0.48233 0.04146 
protector -0.44358 -0.002525 -0.033952 0.055919 0.22272 0.044459 -0.23979 0.20634 0.43912 -0.023382 -0.1661 0.11607 0.2471 0.17504 -0.27184 -0.031099 -0.12296 0.32262 -0.081272 0.22164 -0.41525 -0.12591 0.023938 0.31974 0.083388 -0.20773 0.19906 0.26748 -0.12693 -0.26007 0.046339 0.1361 0.26084 -0.19212 -0.6403 -0.051139 -0.029429 -0.1617 -0.084457 -0.25087 0.34293 0.32251 0.2708 -0.13911 0.29341 -0.48764 0.21837 0.33539 -0.17175 0.013178 
accessories -0.17159 0.10842 -0.18622 0.032487 -0.083219 -0.029241 -0.11267 0.033218 0.29375 0.21502 -0.2279 0.17085 0.1552 0.08068 -0.091716 -0.17049 -0.041948 0.17758 0.001051 0.13806 -0.13447 -0.15911 -0.037874 0.32252 0.12802 -0.1472 0.23787 0.24648 -0.199 -0.059073 -0.12247 -0.0026268 0.12701 -0.10179 -0.55066 0.048332 0.062984 -0.14525 -0.052468 -0.22588 0.31338 0.26705 0.089401 -0.23748 0.13912 -0.32203 0.18696 0.21027 -0.22982 -0.11482 
tablet -0.20885 0.1209 -0.40682 -0.014112 -0.17966 -0.025376 -0.037406 -0.082702 0.38674 0.25762 -0.062822 0.074772 0.18702 0.12101 -0.14263 -0.17526 0.0065481 0.16608 0.2258 0.0949 -0.17277 -0.31772 0.062107 0.23516 0.17258 -0.14121 0.30166 0.38316 -0.13667 -0.01086 -0.13374 -0.10982 0.21226 -0.15039 -0.3584 0.153 0.093088 -0.077631 -0.057055 -0.16957 0.29413 0.25213 0.13525 -0.26004 0.07461 -0.34802 0.16298 0.2199 -0.37072 -0.13743 
geforce -0.38028 -0.029469 0.027665 -0.75107 -0.1537 -0.061884 -0.10837 -0.025085 0.16715 0.54881 -0.59442 0.33642 -0.11228 0.13386 0.16127 -0.73593 0.026908 0.12116 0.2275 -0.079618 0.31262 -0.39452 -0.19087 0.67417 0.44267 0.041977 0.61522 0.23947 -0.29242 0.072428 -0.31669 -0.39593 0.041767 0.46115 -0.91132 0.48606 0.45272 0.048414 -0.071416 -0.054328 0.65461 0.12281 -0.077631 0.25196 -0.26352 -0.58405 0.16946 0.56844 -0.67894 -0.061103 
640gb 0.46501 0.16754 -0.50906 -0.26829 -0.66924 -0.70486 -0.13937 -0.35046 0.30885 0.98671 -0.41386 0.75573 -0.31414 0.092322 -0.41157 -0.44726 -0.29333 -0.20855 0.43492 0.23542 0.096392 -0.33547 -0.10978 0.21316 0.56896 -0.41388 0.44343 0.0409 -0.36435 0.32204 -0.70974 -0.21946 0.30504 -0.43439 -0.53775 0.075439 0.4036 0.1171 -0.1985 -0.50523 0.36609 0.0096443 -0.060175 -0.43047 -0.35095 -0.25323 0.16077 -0.11166 -0.16473 -0.4772 
i7 0.4049 0.22594 -0.28936 0.177 -0.44554 -0.50873 -0.1596 -0.15121 0.29438 0.65323 -0.39561 0.68883 -0.066271 0.011728 -0.3079 -0.23562 -0.40083 -0.070025 0.063233 0.24794 -0.0024272 -0.055605 -0.18689 0.1457 0.26436 -0.4233 0.15632 0.015528 -0.34217 0.14841 -0.47833 0.0085326 0.14708 -0.48189 -0.60215 -0.22812 0.18708 -0.073208 -0.1548 -0.51561 0.25458 0.15391 -0.069958 -0.51515 -0.068253 -0.093264 0.18722 -0.10773 0.083105 -0.43552 
deluxe -0.18253 -0.049074 -0.025558 -0.059313 -0.05306 -0.075315 -0.13569 0.02983 0.27626 0.080095 -0.15109 0.20866 0.039714 0.1711 -0.20455 -0.11694 -0.17447 0.17946 0.14702 0.15377 -0.24383 -0.093436 0.038651 0.12228 0.14238 -0.17072 0.17877 0.15765 -0.063905 -0.066956 -0.11587 -0.014702 0.16456 -0.13921 -0.25556 0.020199 0.13379 -0.041071 -0.052703 -0.1761 0.2296 0.12944 0.090881 -0.056632 0.038139 -0.33502 0.11467 0.21133 -0.10474 -0.036616 
320gb 0.40378 0.15775 -0.51636 -0.27421 -0.62468 -0.62392 -0.086694 -0.34473 0.27342 0.89432 -0.32438 0.63417 -0.27337 0.096136 -0.36371 -0.40308 -0.22144 -0.20164 0.42465 0.19225 0.0867 -0.34376 -0.073361 0.17338 0.5266 -0.35978 0.42107 0.060877 -0.30922 0.30014 -0.63687 -0.2269 0.2743 -0.38298 -0.41845 0.11342 0.36239 0.12792 -0.17502 -0.4163 0.32333 -0.010034 -0.037436 -0.38186 -0.33169 -0.22666 0.14248 -0.11173 -0.19423 -0.41598 
studio 0.016777 0.036877 -0.13523 0.050298 -0.23836 -0.21774 -0.13547 -0.050447 0.32605 0.21178 -0.17132 0.40098 -0.00031753 0.17056 -0.3016 -0.14486 -0.31881 0.13426 0.21942 0.19484 -0.25319 -0.060892 0.041311 0.070126 0.12979 -0.25946 0.16388 0.14312 -0.13794 -0.017761 -0.251 -0.015244 0.19225 -0.32467 -0.27687 -0.039685 0.18496 -0.092615 -0.063219 -0.24547 0.19629 0.18079 0.015893 -0.24136 0.012319 -0.28875 0.14632 0.14012 -0.02105 -0.17304 
macbook® -0.12288 0.22895 -0.28756 0.2419 -0.13382 0.034341 -0.11604 0.00099064 0.37918 0.10862 -0.15669 0.22219 0.32272 0.035121 -0.12566 -0.081448 -0.13316 0.18992 -0.10739 0.17816 -0.23103 -0.13068 -0.076156 0.28978 0.044243 -0.22555 0.19216 0.33084 -0.23932 -0.063036 -0.03145 0.11656 0.12851 -0.23023 -0.60085 -0.048318 -0.0085443 -0.25407 -0.032446 -0.25375 0.29006 0.40678 0.087119 -0.40503 0.2681 -0.27178 0.25467 0.21983 -0.20962 -0.10306 
nokia -0.48488 0.071244 -0.17846 0.1089 0.21995 0.17038 -0.17555 0.14598 0.46196 -0.031905 -0.1133 0.021517 0.3003 0.12124 -0.22446 -0.049841 -0.017568 0.31389 -0.077415 0.19079 -0.36159 -0.17047 0.056386 0.40252 0.047917 -0.14285 0.25532 0.38271 -0.178 -0.25136 0.077213 0.10379 0.2819 -0.141 -0.7251 0.055229 -0.056368 -0.2216 -0.051876 -0.20685 0.35195 0.44483 0.25134 -0.24634 0.32955 -0.531 0.26145 0.37695 -0.28473 -0.034355 
photo -0.32904 -0.023272 -0.048091 -0.094653 0.081573 -0.035046 -0.18029 0.12184 0.35753 0.10997 -0.19284 0.16995 0.11602 0.1694 -0.23857 -0.12382 -0.083832 0.241 0.023923 0.18047 -0.28493 -0.16267 0.017831 0.3043 0.16629 -0.17202 0.23909 0.23259 -0.13779 -0.15174 -0.056258 0.019535 0.22562 -0.12005 -0.53034 0.038705 0.079524 -0.092461 -0.090736 -0.24159 0.32912 0.21862 0.21192 -0.10228 0.15721 -0.45199 0.17704 0.28027 -0.20433 -0.022396 
centrino® 0.18849 0.13444 -0.13059 0.35474 -0.37709 -0.24574 -0.21113 -0.033581 0.45509 0.30209 -0.26522 0.53541 0.048735 0.1536 -0.26004 -0.16987 -0.41087 0.18743 0.12175 0.23829 -0.17644 0.028173 -0.056482 0.10788 0.061201 -0.34583 0.095712 0.18886 -0.27798 0.054439 -0.31489 -0.051046 0.11829 -0.41959 -0.40862 -0.13592 0.18542 -0.27364 -0.054614 -0.38104 0.1792 0.36217 -0.085578 -0.47492 0.089393 -0.15377 0.17474 0.13453 0.13016 -0.35756 
dimm 0.094595 0.06043 -0.26997 -0.3973 -0.36806 -0.37216 -0.070063 -0.19709 0.1569 0.62529 -0.37968 0.4295 -0.2075 0.097715 -0.14628 -0.42751 -0.096016 -0.071137 0.30563 0.10652 0.13994 -0.29153 -0.092627 0.3037 0.43637 -0.18672 0.42883 0.091391 -0.24786 0.19938 -0.47606 -0.225 0.15239 -0.069868 -0.49357 0.19156 0.34044 0.11519 -0.10121 -0.24109 0.37061 0.012198 -0.024385 -0.12099 -0.26976 -0.3175 0.12869 0.097429 -0.2967 -0.22602 
ethernet -0.39238 0.010993 -0.19358 0.077355 -0.076581 0.077652 -0.079005 0.0096161 0.52375 -0.0412 -0.052428 0.11371 0.2389 0.24109 -0.23927 -0.10245 -0.2233 0.36916 0.34818 0.14118 -0.44695 -0.23384 0.15806 0.15146 0.10057 -0.17618 0.24964 0.41638 -0.057691 -0.14737 -0.055016 -0.074148 0.25924 -0.23075 -0.25456 0.09598 0.11926 -0.15623 -0.02082 -0.080971 0.29407 0.32999 0.13203 -0.14472 0.15317 -0.47864 0.17908 0.46016 -0.27085 -0.10053 
